<?xml version="1.0"?>
<MethodSetup Method="MLP::MLP">
  <GeneralInfo>
    <Info name="TMVA Release" value="4.2.1 [262657]"/>
    <Info name="ROOT Release" value="6.22/08 [398856]"/>
    <Info name="Creator" value="root"/>
    <Info name="Date" value="Tue Oct  5 19:05:55 2021"/>
    <Info name="Host" value="Linux root-ubuntu-2004-2 5.4.0-33-generic #37-Ubuntu SMP Thu May 21 12:53:59 UTC 2020 x86_64 x86_64 x86_64 GNU/Linux"/>
    <Info name="Dir" value="/work"/>
    <Info name="Training events" value="32747"/>
    <Info name="TrainingTime" value="3.26938400e+01"/>
    <Info name="AnalysisType" value="Classification"/>
  </GeneralInfo>
  <Options>
    <Option name="NCycles" modified="Yes">100</Option>
    <Option name="HiddenLayers" modified="Yes">N+5</Option>
    <Option name="NeuronType" modified="Yes">tanh</Option>
    <Option name="RandomSeed" modified="No">1</Option>
    <Option name="EstimatorType" modified="No">CE</Option>
    <Option name="NeuronInputType" modified="No">sum</Option>
    <Option name="V" modified="Yes">False</Option>
    <Option name="VerbosityLevel" modified="No">Default</Option>
    <Option name="VarTransform" modified="Yes">N</Option>
    <Option name="H" modified="Yes">False</Option>
    <Option name="CreateMVAPdfs" modified="No">False</Option>
    <Option name="IgnoreNegWeightsInTraining" modified="No">False</Option>
    <Option name="TrainingMethod" modified="No">BP</Option>
    <Option name="LearningRate" modified="No">2.000000e-02</Option>
    <Option name="DecayRate" modified="No">1.000000e-02</Option>
    <Option name="TestRate" modified="Yes">5</Option>
    <Option name="EpochMonitoring" modified="No">False</Option>
    <Option name="Sampling" modified="No">1.000000e+00</Option>
    <Option name="SamplingEpoch" modified="No">1.000000e+00</Option>
    <Option name="SamplingImportance" modified="No">1.000000e+00</Option>
    <Option name="SamplingTraining" modified="No">True</Option>
    <Option name="SamplingTesting" modified="No">False</Option>
    <Option name="ResetStep" modified="No">50</Option>
    <Option name="Tau" modified="No">3.000000e+00</Option>
    <Option name="BPMode" modified="No">sequential</Option>
    <Option name="BatchSize" modified="No">-1</Option>
    <Option name="ConvergenceImprove" modified="No">1.000000e-30</Option>
    <Option name="ConvergenceTests" modified="No">-1</Option>
    <Option name="UseRegulator" modified="Yes">False</Option>
    <Option name="UpdateLimit" modified="No">10000</Option>
    <Option name="CalculateErrors" modified="No">False</Option>
    <Option name="WeightRange" modified="No">1.000000e+00</Option>
  </Options>
  <Variables NVar="18">
    <Variable VarIndex="0" Expression="Dimuon_CL" Label="Dimuon_CL" Title="Dimuon_CL" Unit="" Internal="Dimuon_CL" Type="F" Min="1.00049924e-03" Max="9.99976218e-01"/>
    <Variable VarIndex="1" Expression="Dimuon_LS" Label="Dimuon_LS" Title="Dimuon_LS" Unit="" Internal="Dimuon_LS" Type="F" Min="9.14498419e-03" Max="2.87732330e+02"/>
    <Variable VarIndex="2" Expression="Dimuon_CosAlpha" Label="Dimuon_CosAlpha" Title="Dimuon_CosAlpha" Unit="" Internal="Dimuon_CosAlpha" Type="F" Min="-9.99999881e-01" Max="1.00000000e+00"/>
    <Variable VarIndex="3" Expression="B_Eta" Label="B_Eta" Title="B_Eta" Unit="" Internal="B_Eta" Type="F" Min="-2.42993069e+00" Max="2.49441290e+00"/>
    <Variable VarIndex="4" Expression="Bz_LS" Label="Bz_LS" Title="Bz_LS" Unit="" Internal="Bz_LS" Type="F" Min="1.06340609e-02" Max="3.07503174e+02"/>
    <Variable VarIndex="5" Expression="Bz_CL" Label="Bz_CL" Title="Bz_CL" Unit="" Internal="Bz_CL" Type="F" Min="1.00293069e-03" Max="9.99999225e-01"/>
    <Variable VarIndex="6" Expression="Bz_CosAlpha" Label="Bz_CosAlpha" Title="Bz_CosAlpha" Unit="" Internal="Bz_CosAlpha" Type="F" Min="-9.99999940e-01" Max="1.00000000e+00"/>
    <Variable VarIndex="7" Expression="Kstar_Mass" Label="Kstar_Mass" Title="Kstar_Mass" Unit="" Internal="Kstar_Mass" Type="F" Min="6.38803244e-01" Max="4.68497896e+00"/>
    <Variable VarIndex="8" Expression="track1_pT" Label="track1_pT" Title="track1_pT" Unit="" Internal="track1_pT" Type="F" Min="8.00292969e-01" Max="2.76718750e+01"/>
    <Variable VarIndex="9" Expression="track1_eta" Label="track1_eta" Title="track1_eta" Unit="" Internal="track1_eta" Type="F" Min="-2.39967036e+00" Max="2.39985347e+00"/>
    <Variable VarIndex="10" Expression="track1_d0" Label="track1_d0" Title="track1_d0" Unit="" Internal="track1_d0" Type="F" Min="1.67953131e-05" Max="1.37721756e+02"/>
    <Variable VarIndex="11" Expression="track2_pT" Label="track2_pT" Title="track2_pT" Unit="" Internal="track2_pT" Type="F" Min="8.05664062e-01" Max="7.01406250e+01"/>
    <Variable VarIndex="12" Expression="track2_eta" Label="track2_eta" Title="track2_eta" Unit="" Internal="track2_eta" Type="F" Min="-2.39948726e+00" Max="2.39985347e+00"/>
    <Variable VarIndex="13" Expression="track2_d0" Label="track2_d0" Title="track2_d0" Unit="" Internal="track2_d0" Type="F" Min="5.10651771e-05" Max="1.36932953e+02"/>
    <Variable VarIndex="14" Expression="Muon1_pT" Label="Muon1_pT" Title="Muon1_pT" Unit="" Internal="Muon1_pT" Type="F" Min="7.64846385e-01" Max="1.32512741e+02"/>
    <Variable VarIndex="15" Expression="Muon1_eta" Label="Muon1_eta" Title="Muon1_eta" Unit="" Internal="Muon1_eta" Type="F" Min="-2.39949632e+00" Max="2.39947271e+00"/>
    <Variable VarIndex="16" Expression="Muon2_pT" Label="Muon2_pT" Title="Muon2_pT" Unit="" Internal="Muon2_pT" Type="F" Min="6.49774373e-01" Max="6.97255402e+01"/>
    <Variable VarIndex="17" Expression="Muon2_eta" Label="Muon2_eta" Title="Muon2_eta" Unit="" Internal="Muon2_eta" Type="F" Min="-2.39947104e+00" Max="2.39915490e+00"/>
  </Variables>
  <Spectators NSpec="0"/>
  <Classes NClass="2">
    <Class Name="Signal" Index="0"/>
    <Class Name="Background" Index="1"/>
  </Classes>
  <Transformations NTransformations="1">
    <Transform Name="Normalize">
      <Selection>
        <Input NInputs="18">
          <Input Type="Variable" Label="Dimuon_CL" Expression="Dimuon_CL"/>
          <Input Type="Variable" Label="Dimuon_LS" Expression="Dimuon_LS"/>
          <Input Type="Variable" Label="Dimuon_CosAlpha" Expression="Dimuon_CosAlpha"/>
          <Input Type="Variable" Label="B_Eta" Expression="B_Eta"/>
          <Input Type="Variable" Label="Bz_LS" Expression="Bz_LS"/>
          <Input Type="Variable" Label="Bz_CL" Expression="Bz_CL"/>
          <Input Type="Variable" Label="Bz_CosAlpha" Expression="Bz_CosAlpha"/>
          <Input Type="Variable" Label="Kstar_Mass" Expression="Kstar_Mass"/>
          <Input Type="Variable" Label="track1_pT" Expression="track1_pT"/>
          <Input Type="Variable" Label="track1_eta" Expression="track1_eta"/>
          <Input Type="Variable" Label="track1_d0" Expression="track1_d0"/>
          <Input Type="Variable" Label="track2_pT" Expression="track2_pT"/>
          <Input Type="Variable" Label="track2_eta" Expression="track2_eta"/>
          <Input Type="Variable" Label="track2_d0" Expression="track2_d0"/>
          <Input Type="Variable" Label="Muon1_pT" Expression="Muon1_pT"/>
          <Input Type="Variable" Label="Muon1_eta" Expression="Muon1_eta"/>
          <Input Type="Variable" Label="Muon2_pT" Expression="Muon2_pT"/>
          <Input Type="Variable" Label="Muon2_eta" Expression="Muon2_eta"/>
        </Input>
        <Output NOutputs="18">
          <Output Type="Variable" Label="Dimuon_CL" Expression="Dimuon_CL"/>
          <Output Type="Variable" Label="Dimuon_LS" Expression="Dimuon_LS"/>
          <Output Type="Variable" Label="Dimuon_CosAlpha" Expression="Dimuon_CosAlpha"/>
          <Output Type="Variable" Label="B_Eta" Expression="B_Eta"/>
          <Output Type="Variable" Label="Bz_LS" Expression="Bz_LS"/>
          <Output Type="Variable" Label="Bz_CL" Expression="Bz_CL"/>
          <Output Type="Variable" Label="Bz_CosAlpha" Expression="Bz_CosAlpha"/>
          <Output Type="Variable" Label="Kstar_Mass" Expression="Kstar_Mass"/>
          <Output Type="Variable" Label="track1_pT" Expression="track1_pT"/>
          <Output Type="Variable" Label="track1_eta" Expression="track1_eta"/>
          <Output Type="Variable" Label="track1_d0" Expression="track1_d0"/>
          <Output Type="Variable" Label="track2_pT" Expression="track2_pT"/>
          <Output Type="Variable" Label="track2_eta" Expression="track2_eta"/>
          <Output Type="Variable" Label="track2_d0" Expression="track2_d0"/>
          <Output Type="Variable" Label="Muon1_pT" Expression="Muon1_pT"/>
          <Output Type="Variable" Label="Muon1_eta" Expression="Muon1_eta"/>
          <Output Type="Variable" Label="Muon2_pT" Expression="Muon2_pT"/>
          <Output Type="Variable" Label="Muon2_eta" Expression="Muon2_eta"/>
        </Output>
      </Selection>
      <Class ClassIndex="0">
        <Ranges>
          <Range Index="0" Min="1.0004992363974452e-03" Max="9.9997621774673462e-01"/>
          <Range Index="1" Min="9.1449841856956482e-03" Max="2.8773233032226562e+02"/>
          <Range Index="2" Min="-9.9999988079071045e-01" Max="1.0000000000000000e+00"/>
          <Range Index="3" Min="-2.4299306869506836e+00" Max="2.4944128990173340e+00"/>
          <Range Index="4" Min="1.0634060949087143e-02" Max="3.0750317382812500e+02"/>
          <Range Index="5" Min="1.0029306868091226e-03" Max="9.9999922513961792e-01"/>
          <Range Index="6" Min="-9.9999988079071045e-01" Max="1.0000000000000000e+00"/>
          <Range Index="7" Min="6.3880324363708496e-01" Max="4.6849789619445801e+00"/>
          <Range Index="8" Min="8.0029296875000000e-01" Max="2.7671875000000000e+01"/>
          <Range Index="9" Min="-2.3996703624725342e+00" Max="2.3998534679412842e+00"/>
          <Range Index="10" Min="1.6795313058537431e-05" Max="1.3772175598144531e+02"/>
          <Range Index="11" Min="8.0566406250000000e-01" Max="7.0140625000000000e+01"/>
          <Range Index="12" Min="-2.3994872570037842e+00" Max="2.3998534679412842e+00"/>
          <Range Index="13" Min="5.1065177103737369e-05" Max="1.3693295288085938e+02"/>
          <Range Index="14" Min="7.6484638452529907e-01" Max="1.3251274108886719e+02"/>
          <Range Index="15" Min="-2.3994712829589844e+00" Max="2.3994727134704590e+00"/>
          <Range Index="16" Min="6.4977437257766724e-01" Max="6.9725540161132812e+01"/>
          <Range Index="17" Min="-2.3994710445404053e+00" Max="2.3991549015045166e+00"/>
        </Ranges>
      </Class>
      <Class ClassIndex="1">
        <Ranges>
          <Range Index="0" Min="1.0852534323930740e-03" Max="9.9513095617294312e-01"/>
          <Range Index="1" Min="6.0967274010181427e-02" Max="1.9067994689941406e+02"/>
          <Range Index="2" Min="-9.9999696016311646e-01" Max="9.9999994039535522e-01"/>
          <Range Index="3" Min="-1.1814342737197876e+00" Max="1.9803456068038940e+00"/>
          <Range Index="4" Min="1.2065253406763077e-01" Max="1.9070428466796875e+02"/>
          <Range Index="5" Min="1.0092066368088126e-03" Max="9.9991023540496826e-01"/>
          <Range Index="6" Min="-9.9999994039535522e-01" Max="1.0000000000000000e+00"/>
          <Range Index="7" Min="7.3099267482757568e-01" Max="4.4390373229980469e+00"/>
          <Range Index="8" Min="8.0029296875000000e-01" Max="6.2851562500000000e+00"/>
          <Range Index="9" Min="-2.3954589366912842e+00" Max="2.3908810615539551e+00"/>
          <Range Index="10" Min="1.6450935509055853e-03" Max="2.6438682556152344e+01"/>
          <Range Index="11" Min="8.0908203125000000e-01" Max="1.8098571777343750e+01"/>
          <Range Index="12" Min="-2.3914303779602051e+00" Max="2.3881344795227051e+00"/>
          <Range Index="13" Min="4.9494463019073009e-04" Max="3.2195594787597656e+01"/>
          <Range Index="14" Min="7.6762366294860840e-01" Max="3.2603935241699219e+01"/>
          <Range Index="15" Min="-2.3994963169097900e+00" Max="2.3940892219543457e+00"/>
          <Range Index="16" Min="6.6484862565994263e-01" Max="2.1057973861694336e+01"/>
          <Range Index="17" Min="-2.3981821537017822e+00" Max="2.3850440979003906e+00"/>
        </Ranges>
      </Class>
      <Class ClassIndex="2">
        <Ranges>
          <Range Index="0" Min="1.0004992363974452e-03" Max="9.9997621774673462e-01"/>
          <Range Index="1" Min="9.1449841856956482e-03" Max="2.8773233032226562e+02"/>
          <Range Index="2" Min="-9.9999988079071045e-01" Max="1.0000000000000000e+00"/>
          <Range Index="3" Min="-2.4299306869506836e+00" Max="2.4944128990173340e+00"/>
          <Range Index="4" Min="1.0634060949087143e-02" Max="3.0750317382812500e+02"/>
          <Range Index="5" Min="1.0029306868091226e-03" Max="9.9999922513961792e-01"/>
          <Range Index="6" Min="-9.9999994039535522e-01" Max="1.0000000000000000e+00"/>
          <Range Index="7" Min="6.3880324363708496e-01" Max="4.6849789619445801e+00"/>
          <Range Index="8" Min="8.0029296875000000e-01" Max="2.7671875000000000e+01"/>
          <Range Index="9" Min="-2.3996703624725342e+00" Max="2.3998534679412842e+00"/>
          <Range Index="10" Min="1.6795313058537431e-05" Max="1.3772175598144531e+02"/>
          <Range Index="11" Min="8.0566406250000000e-01" Max="7.0140625000000000e+01"/>
          <Range Index="12" Min="-2.3994872570037842e+00" Max="2.3998534679412842e+00"/>
          <Range Index="13" Min="5.1065177103737369e-05" Max="1.3693295288085938e+02"/>
          <Range Index="14" Min="7.6484638452529907e-01" Max="1.3251274108886719e+02"/>
          <Range Index="15" Min="-2.3994963169097900e+00" Max="2.3994727134704590e+00"/>
          <Range Index="16" Min="6.4977437257766724e-01" Max="6.9725540161132812e+01"/>
          <Range Index="17" Min="-2.3994710445404053e+00" Max="2.3991549015045166e+00"/>
        </Ranges>
      </Class>
    </Transform>
  </Transformations>
  <MVAPdfs/>
  <Weights>
    <Layout NLayers="3">
      <Layer Index="0" NNeurons="19">
        <Neuron NSynapses="23">
          3.2186603166871682e-03 1.8788616506272371e+00 1.7793881683346997e+00 1.4029781513600454e+00 -1.9486502845818998e+00 -1.5845293595375971e+00 -3.0724179088391868e-01 2.1087850804864878e+00 -1.2633671422007220e+00 -1.1169065217359706e+00 -1.5883859885929705e+00 2.0081812097197069e-01 -7.5744901220725758e-01 -2.6297127392473735e-01 1.9090628804682067e-01 1.8307178651400699e-01 -5.8316810878818182e-01 6.7052954702011613e-02 1.3434403750247650e-01 2.2952814330258284e-01 -2.8331882338387454e-01 1.4112809572468962e-01 2.2351714685703850e-01 
        </Neuron>
        <Neuron NSynapses="23">
          1.1407183445315935e-02 -1.5848899013047615e+00 -2.5551570178734018e-01 1.8402059120503047e+00 -1.0292028518796039e+00 -1.5705931452286466e+00 1.6253758679142255e-01 1.5327445930317831e+00 1.3152404276453062e+00 -1.2429086832367227e-01 -1.5955938106517778e-01 -3.9807204246923805e-01 -4.4495617402065368e-01 -1.7101035203156398e+00 2.0330459397614544e+00 -2.0891720439144774e+00 7.1788881373572300e-01 6.7495637117598550e-01 1.0931936698709817e+00 7.6885260864791760e-01 1.3897229040511694e+00 -5.6344428347948661e-01 -1.3965749870560979e+00 
        </Neuron>
        <Neuron NSynapses="23">
          9.1956933534431085e-01 -3.7497980677771348e-01 8.1250038539853409e-01 8.0417018087166547e-01 9.1941151187270775e-01 1.7699242209167863e+00 -3.2380192811115078e+00 -1.1154278528399449e-01 -1.4248031597370514e+00 -8.1341152391030103e-01 -3.1115045801437842e+00 -9.6006424491899522e-01 5.6974878141217145e-01 1.3780427623705716e+00 3.0286273170583456e-02 2.5950210745416880e-01 1.5192522771413869e-01 6.4186003760935938e-03 5.9873346467044819e-01 -6.0359161094773121e-02 -1.9120692183691604e-01 -1.4219607951062418e-01 2.7853076606316624e-01 
        </Neuron>
        <Neuron NSynapses="23">
          -4.0672488472431728e-01 -8.0498481971548441e-01 -2.2993111904740396e-01 5.0406802958493835e-01 1.5532828958033222e+00 2.2616874610175004e+00 -2.5371350161875601e-02 -6.0022837859385281e-01 -1.5617585639055838e+00 1.2817590032463166e+00 1.5324574502675556e-01 2.7208197930590985e+00 3.9124523514938819e-01 7.9547622045413124e-01 -1.1143235768678910e+00 -5.7365241365165009e-01 -6.6585022281538475e-01 8.2255202153094302e+00 2.8339620543954097e-01 -3.5537177029603919e+00 -1.5371402026188583e+00 7.8911030116435937e-02 -2.2095099007029023e-01 
        </Neuron>
        <Neuron NSynapses="23">
          1.4431760306284946e+00 -2.2396299596152804e+00 -7.6831946589041189e-01 1.7715692695613083e+00 -8.7024778203787412e-01 -1.2284240591721920e+00 -9.7952212143184914e-01 8.0985531719734638e-01 -2.1852435718179959e+00 -1.4822423342214868e+00 7.1589515756175959e-01 1.2357525605775996e+00 -1.6101398898278692e+00 1.5282876419940239e+00 -8.9799114379564071e-01 -1.2437529147538664e+00 -3.0699595843668021e-01 -5.0354736149435053e-01 -1.6987633250524388e+00 -6.3794925030295369e-01 4.4960046352266864e-01 1.1364388264397411e+00 -1.1416696493957705e+00 
        </Neuron>
        <Neuron NSynapses="23">
          1.8506080429890914e+00 5.4689744246526417e-01 -1.1269864125013829e+00 6.5519813520098547e-01 -7.2170997689486516e-01 -5.4847662403473574e-01 1.1035488161565959e-01 2.0251236144848289e-01 1.3798892640688620e+00 8.0239241987502385e-01 -5.2929448622097908e-01 1.1668461839090731e+00 6.6889365455757008e-02 -2.3730731189709702e+00 1.8622829605058486e+00 -4.0381448359936623e-02 -1.9362719972147675e+00 3.2766544204636823e-02 -1.8272826846661878e+00 -1.0502589999896323e-02 9.8434364751266068e-01 2.4699329254701112e+00 -4.6845254610125386e-01 
        </Neuron>
        <Neuron NSynapses="23">
          2.5852591479521542e-01 8.7113138972562232e-01 2.3975822832501614e+00 -4.4865722669286706e-01 -2.9487496102200694e+00 -1.0253182578537055e+00 -5.2123807893744782e+00 2.2079302460281589e+00 1.1002749856084022e+00 -3.8475786755804248e-01 -1.2518533784877777e+00 -2.9500510172788058e-01 -1.4469738731458632e+00 2.1964778745610258e-01 4.5889667765906894e-01 1.6918073272170980e-01 -3.7723380058477379e-01 1.9443895730530656e-02 7.5781674936850418e-01 -1.9895234265112055e-01 5.8896662885294149e-01 -3.6399104588877162e-01 1.6759850086776301e-01 
        </Neuron>
        <Neuron NSynapses="23">
          1.5628916387266329e+00 7.9894564923501343e-01 2.2004327367937196e-01 1.5359740236297361e+00 -8.2317837799721405e-01 1.3072294302926146e-02 1.1002232157370546e+00 -8.2109319696450866e-01 -8.2427440569846844e-01 1.0780715753362944e+00 7.8721253407743519e-01 -1.3544817536773663e+00 1.5346763972802424e+00 1.3109896213285515e+00 -2.4507693024120725e+00 -1.2184306820210247e+00 -6.6571706482706305e-01 2.3815151322768413e-01 -1.2807844137190365e+00 2.2714859582590527e-01 1.4048141957462938e+00 1.5502915211879860e+00 -1.2455112785645590e+00 
        </Neuron>
        <Neuron NSynapses="23">
          -3.6956088457202857e-01 -4.4037634165215994e-01 2.4506390816368998e-01 2.0233160043775782e+00 -8.6386568219900661e-01 -3.9671057307206964e-01 -1.9662385996443701e+00 7.2604208545072557e-01 1.1627799636184726e+00 1.3322539246737126e+00 1.0521305189827614e-01 -1.0423437681715718e-01 -2.1849592049446858e+00 8.9521648363310102e-01 5.9107252525847520e-01 -8.1261776758779680e-01 -9.4249292357872905e-01 1.0554366136920890e+00 -1.6848616581178097e-01 -1.1703823467865389e+00 1.5777916086790162e+00 1.0302201189332474e+00 -3.6835009524424200e-01 
        </Neuron>
        <Neuron NSynapses="23">
          7.6784167381591190e-02 1.6129783015754722e+00 1.8174341248191832e+00 7.2216825766875148e-01 -3.7176602400453451e-01 -1.6888029321605218e+00 -5.9958430902985294e-01 1.8169196620979748e+00 1.5077661375980440e+00 3.5689688129747427e-01 9.0272889338930551e-01 2.3505148658100956e+00 -1.8408403001387450e+00 -1.8551870521970295e+00 9.1341289307017431e-02 -1.2986729572849551e+00 7.2767464702434148e-01 -6.1450751737609888e-02 -8.6346312012987669e-01 1.7808586427052864e-01 8.8747293916348197e-02 -1.8528085133487386e+00 8.8906337074692521e-01 
        </Neuron>
        <Neuron NSynapses="23">
          8.3352830050832794e-01 -2.0602255595888608e-01 1.0473238556172426e+00 -9.0428110259775429e-01 1.4604881510089682e+00 -1.6249114459847274e+00 1.8108172573351658e-01 -4.4252616773683423e-01 -1.7579503599796586e+00 -1.1047195721174585e+00 -1.7919183564187355e+00 6.6885452827818034e-02 -2.0324315670759971e+00 -1.8803163494733006e+00 -1.7554122907831737e+00 2.9043700589072913e-01 -1.4299048818134219e+00 -4.1019346808076373e-01 1.3014212513800749e+00 -6.9882559988069926e-01 3.9489565406127658e-01 -1.0356101749274975e+00 5.0485284376949879e-02 
        </Neuron>
        <Neuron NSynapses="23">
          1.8263898726044012e+00 1.4986054279231489e+00 -9.9097148856574990e-01 -1.1102522271171140e+00 -1.3765954814091954e+00 -5.9438167205783388e-01 -2.7439292995270241e+00 7.4735736129540575e-01 -1.7514574588337331e-01 2.1353320116793624e+00 -3.8814760223665656e-01 7.2970855093095843e-01 -6.1877093862313082e-01 -2.1424008119762554e+00 1.0674046824166781e+00 9.2848728281473936e-01 -1.2129290965551243e+00 -1.2245620927917058e+00 9.8967011025384688e-01 1.3571618521215150e+00 6.2250726106891796e-01 -3.3714085368283908e-01 -4.5777891434255891e-01 
        </Neuron>
        <Neuron NSynapses="23">
          1.5378964132262221e+00 1.0814288070087668e+00 1.1873236605409077e+00 1.4167481588852521e-02 1.1132425140756426e+00 -9.2196445240270686e-01 -4.6654059927118852e-02 -2.0719364148155832e+00 -1.4217888929362352e+00 -1.4548865295928328e+00 -1.0990480371474807e+00 2.3693581695704449e+00 -1.7830105913433263e+00 1.0578527298457669e+00 -1.5501463996316087e+00 -5.0996487413271796e-01 -1.0764000232965241e+00 1.3449597434300925e-01 8.2332726618725804e-01 6.2764846957703191e-01 4.5640100698738806e-01 -1.7675823738925325e-01 2.8255597033151580e-01 
        </Neuron>
        <Neuron NSynapses="23">
          -1.5745916050417816e+00 -1.7430550705520624e+00 -8.2031493929591348e-01 2.1879329985413727e+00 -5.8359244528507515e-01 5.5167532479709025e-01 -1.9214618081261718e+00 -1.3632379203068259e+00 -2.0831440853233718e+00 -7.8397754433029110e-01 -1.3878989996418205e+00 1.2766173895913804e+00 -1.5269809514627595e+00 -1.6492157659596276e+00 1.7028286889763422e+00 7.8724144925368589e-01 -1.0160749547928924e+00 2.1364602385417282e+00 -1.7893228926639224e+00 1.1368144109389922e+00 1.2245865736179877e+00 -7.8253137715299392e-01 -4.0681369859479771e-01 
        </Neuron>
        <Neuron NSynapses="23">
          1.7815123919735137e-02 -1.0682571660014137e+00 2.2750987396807476e-01 2.2394996273936680e+00 1.3045808654288076e+00 1.6825864661033971e+00 5.4958681324341818e-01 1.9819304221351548e+00 -2.3381687767966337e+00 9.0533504389558295e-01 -1.5860674142547213e+00 -1.6330171894744796e+00 -1.3199139965266610e-01 8.5589067188500656e-01 -8.3271361891034734e-01 -4.8107441134758365e-02 -2.5040558461026707e-01 -3.5394425185762413e-01 -3.7882578886350732e-01 -8.1857312012039618e-01 2.1223182290929645e+00 -3.0549183338231858e+00 -2.9259634322853351e-01 
        </Neuron>
        <Neuron NSynapses="23">
          -1.8000103104323635e+00 -2.0431557282444160e-01 1.4425421337329014e-01 4.9402481048785757e-01 -9.9463512168412271e-01 1.0407087571289586e+00 1.1692576076074079e+00 5.4734121672425373e-01 1.5918936812060522e-01 -1.2921724932489784e+00 -1.9387449239175678e+00 -8.5943291989137127e-01 1.0145119654782315e+00 1.0959223783400951e+00 -8.7936043216480564e-01 2.7819317783034142e-01 -1.0371860005145712e+00 -5.0943327947442907e-01 -2.8731384553454076e+00 7.9535753849970836e-01 -1.1353590778370712e+00 -9.2945663637576337e-01 -1.5242197176803847e+00 
        </Neuron>
        <Neuron NSynapses="23">
          -1.0776446591966364e+00 -1.5081370891648156e+00 5.7698925795029710e-01 -9.7025146437963983e-01 -1.3490743308739119e+00 1.6158192109111322e+00 -2.9850795981197860e+00 7.9219710186318659e-01 -3.1838089512707518e-01 1.6379486801722312e+00 1.1748922461317268e+00 1.4136846273473449e+00 -9.2112352998128744e-01 -7.9398668014273133e-01 -2.0314268334453680e+00 4.2614938839859393e+00 4.5658723950223734e-01 4.2557627926694985e-01 1.1910727058921859e+00 2.7602875856449143e+00 1.8704978167020110e+00 -1.2501185009912932e+00 3.8347119664859850e+00 
        </Neuron>
        <Neuron NSynapses="23">
          -1.8555786338453822e-01 -1.6718874825787211e+00 1.0131942099674136e+00 -7.6569994485280624e-01 7.7688821410475550e-01 5.9916567687561861e-01 -6.2439301517344914e-01 1.2348821484106782e+00 -7.3710349444583559e-02 1.4305762836369504e+00 5.8221238791996066e-01 1.0739571190073787e+00 -1.0039907367242151e+00 2.8816212871310212e+00 -3.2237926028950952e+00 3.1712768826689484e+00 2.0568444680757323e+00 4.6278809934904125e-01 -1.0575658962522361e+00 -8.7014592808768709e-01 -1.1221079807271335e+00 -1.8097520091071028e-02 -3.3348673186366944e+00 
        </Neuron>
        <Neuron NSynapses="23">
          1.0791853426850546e-01 -4.1804666965970444e-01 1.5925469675923172e+00 6.1248847213120794e-01 1.5536510917355579e+00 -9.7125379676876045e-01 -5.3650704808471084e-01 6.2720617132379397e-01 2.3411395749355055e+00 -2.0705086405671129e+00 -1.4933240266270009e+00 -8.3577276754154950e-01 -1.7623589522363783e+00 -1.0243552451095188e+00 -1.5039617424499845e+00 2.2072496082069417e+00 7.5294803915508257e-01 -3.0371783533240313e+00 -1.9938381799590388e+00 7.9188571111736272e-01 1.4799543491621312e+00 2.2706799812141294e+00 1.9358029873478242e+00 
        </Neuron>
      </Layer>
      <Layer Index="1" NNeurons="24">
        <Neuron NSynapses="1">
          -3.1798596915607624e-01 
        </Neuron>
        <Neuron NSynapses="1">
          -1.3822922888663360e+00 
        </Neuron>
        <Neuron NSynapses="1">
          -6.1438391116114810e-01 
        </Neuron>
        <Neuron NSynapses="1">
          -1.4127305617149892e+00 
        </Neuron>
        <Neuron NSynapses="1">
          -1.4323704999932361e+00 
        </Neuron>
        <Neuron NSynapses="1">
          -6.1469382750634993e-01 
        </Neuron>
        <Neuron NSynapses="1">
          -1.5055615203695574e+00 
        </Neuron>
        <Neuron NSynapses="1">
          -8.5207309166606260e-01 
        </Neuron>
        <Neuron NSynapses="1">
          1.2557144786467240e+00 
        </Neuron>
        <Neuron NSynapses="1">
          9.9201695590303840e-02 
        </Neuron>
        <Neuron NSynapses="1">
          -5.4238376401560051e-01 
        </Neuron>
        <Neuron NSynapses="1">
          5.5096403296834273e-01 
        </Neuron>
        <Neuron NSynapses="1">
          -1.4598216171460183e+00 
        </Neuron>
        <Neuron NSynapses="1">
          5.4736309655628801e-01 
        </Neuron>
        <Neuron NSynapses="1">
          1.2915759813606245e+00 
        </Neuron>
        <Neuron NSynapses="1">
          2.0263884286832026e+00 
        </Neuron>
        <Neuron NSynapses="1">
          1.7846502350105997e+00 
        </Neuron>
        <Neuron NSynapses="1">
          1.9986322099121885e+00 
        </Neuron>
        <Neuron NSynapses="1">
          -4.7789710773014360e-01 
        </Neuron>
        <Neuron NSynapses="1">
          1.7863983218817774e+00 
        </Neuron>
        <Neuron NSynapses="1">
          -2.6351762264487841e+00 
        </Neuron>
        <Neuron NSynapses="1">
          1.9136028747370895e+00 
        </Neuron>
        <Neuron NSynapses="1">
          1.4033749694005635e+00 
        </Neuron>
        <Neuron NSynapses="1">
          7.3326738480641951e-01 
        </Neuron>
      </Layer>
      <Layer Index="2" NNeurons="1">
        <Neuron NSynapses="0"/>
      </Layer>
    </Layout>
  </Weights>
</MethodSetup>
