<?xml version="1.0"?>
<MethodSetup Method="MLP::MLP">
  <GeneralInfo>
    <Info name="TMVA Release" value="4.2.1 [262657]"/>
    <Info name="ROOT Release" value="6.22/08 [398856]"/>
    <Info name="Creator" value="root"/>
    <Info name="Date" value="Tue Oct  5 17:21:56 2021"/>
    <Info name="Host" value="Linux root-ubuntu-2004-2 5.4.0-33-generic #37-Ubuntu SMP Thu May 21 12:53:59 UTC 2020 x86_64 x86_64 x86_64 GNU/Linux"/>
    <Info name="Dir" value="/work"/>
    <Info name="Training events" value="32364"/>
    <Info name="TrainingTime" value="3.20594389e+01"/>
    <Info name="AnalysisType" value="Classification"/>
  </GeneralInfo>
  <Options>
    <Option name="NCycles" modified="Yes">100</Option>
    <Option name="HiddenLayers" modified="Yes">N+5</Option>
    <Option name="NeuronType" modified="Yes">tanh</Option>
    <Option name="RandomSeed" modified="No">1</Option>
    <Option name="EstimatorType" modified="No">CE</Option>
    <Option name="NeuronInputType" modified="No">sum</Option>
    <Option name="V" modified="Yes">False</Option>
    <Option name="VerbosityLevel" modified="No">Default</Option>
    <Option name="VarTransform" modified="Yes">N</Option>
    <Option name="H" modified="Yes">False</Option>
    <Option name="CreateMVAPdfs" modified="No">False</Option>
    <Option name="IgnoreNegWeightsInTraining" modified="No">False</Option>
    <Option name="TrainingMethod" modified="No">BP</Option>
    <Option name="LearningRate" modified="No">2.000000e-02</Option>
    <Option name="DecayRate" modified="No">1.000000e-02</Option>
    <Option name="TestRate" modified="Yes">5</Option>
    <Option name="EpochMonitoring" modified="No">False</Option>
    <Option name="Sampling" modified="No">1.000000e+00</Option>
    <Option name="SamplingEpoch" modified="No">1.000000e+00</Option>
    <Option name="SamplingImportance" modified="No">1.000000e+00</Option>
    <Option name="SamplingTraining" modified="No">True</Option>
    <Option name="SamplingTesting" modified="No">False</Option>
    <Option name="ResetStep" modified="No">50</Option>
    <Option name="Tau" modified="No">3.000000e+00</Option>
    <Option name="BPMode" modified="No">sequential</Option>
    <Option name="BatchSize" modified="No">-1</Option>
    <Option name="ConvergenceImprove" modified="No">1.000000e-30</Option>
    <Option name="ConvergenceTests" modified="No">-1</Option>
    <Option name="UseRegulator" modified="Yes">False</Option>
    <Option name="UpdateLimit" modified="No">10000</Option>
    <Option name="CalculateErrors" modified="No">False</Option>
    <Option name="WeightRange" modified="No">1.000000e+00</Option>
  </Options>
  <Variables NVar="18">
    <Variable VarIndex="0" Expression="Dimuon_CL" Label="Dimuon_CL" Title="Dimuon_CL" Unit="" Internal="Dimuon_CL" Type="F" Min="1.00049924e-03" Max="9.99976218e-01"/>
    <Variable VarIndex="1" Expression="Dimuon_LS" Label="Dimuon_LS" Title="Dimuon_LS" Unit="" Internal="Dimuon_LS" Type="F" Min="9.14498419e-03" Max="2.87732330e+02"/>
    <Variable VarIndex="2" Expression="Dimuon_CosAlpha" Label="Dimuon_CosAlpha" Title="Dimuon_CosAlpha" Unit="" Internal="Dimuon_CosAlpha" Type="F" Min="-9.99999881e-01" Max="1.00000000e+00"/>
    <Variable VarIndex="3" Expression="B_Eta" Label="B_Eta" Title="B_Eta" Unit="" Internal="B_Eta" Type="F" Min="-2.42993069e+00" Max="2.49441290e+00"/>
    <Variable VarIndex="4" Expression="Bz_LS" Label="Bz_LS" Title="Bz_LS" Unit="" Internal="Bz_LS" Type="F" Min="1.06340609e-02" Max="3.07503174e+02"/>
    <Variable VarIndex="5" Expression="Bz_CL" Label="Bz_CL" Title="Bz_CL" Unit="" Internal="Bz_CL" Type="F" Min="1.00293069e-03" Max="9.99999225e-01"/>
    <Variable VarIndex="6" Expression="Bz_CosAlpha" Label="Bz_CosAlpha" Title="Bz_CosAlpha" Unit="" Internal="Bz_CosAlpha" Type="F" Min="-9.99999881e-01" Max="1.00000000e+00"/>
    <Variable VarIndex="7" Expression="Kstar_Mass" Label="Kstar_Mass" Title="Kstar_Mass" Unit="" Internal="Kstar_Mass" Type="F" Min="6.38803244e-01" Max="4.68497896e+00"/>
    <Variable VarIndex="8" Expression="track1_pT" Label="track1_pT" Title="track1_pT" Unit="" Internal="track1_pT" Type="F" Min="8.00292969e-01" Max="2.76718750e+01"/>
    <Variable VarIndex="9" Expression="track1_eta" Label="track1_eta" Title="track1_eta" Unit="" Internal="track1_eta" Type="F" Min="-2.39967036e+00" Max="2.39985347e+00"/>
    <Variable VarIndex="10" Expression="track1_d0" Label="track1_d0" Title="track1_d0" Unit="" Internal="track1_d0" Type="F" Min="1.67953131e-05" Max="1.37721756e+02"/>
    <Variable VarIndex="11" Expression="track2_pT" Label="track2_pT" Title="track2_pT" Unit="" Internal="track2_pT" Type="F" Min="8.05664062e-01" Max="7.01406250e+01"/>
    <Variable VarIndex="12" Expression="track2_eta" Label="track2_eta" Title="track2_eta" Unit="" Internal="track2_eta" Type="F" Min="-2.39948726e+00" Max="2.39985347e+00"/>
    <Variable VarIndex="13" Expression="track2_d0" Label="track2_d0" Title="track2_d0" Unit="" Internal="track2_d0" Type="F" Min="5.10651771e-05" Max="1.36932953e+02"/>
    <Variable VarIndex="14" Expression="Muon1_pT" Label="Muon1_pT" Title="Muon1_pT" Unit="" Internal="Muon1_pT" Type="F" Min="7.64846385e-01" Max="1.32512741e+02"/>
    <Variable VarIndex="15" Expression="Muon1_eta" Label="Muon1_eta" Title="Muon1_eta" Unit="" Internal="Muon1_eta" Type="F" Min="-2.39947128e+00" Max="2.39947271e+00"/>
    <Variable VarIndex="16" Expression="Muon2_pT" Label="Muon2_pT" Title="Muon2_pT" Unit="" Internal="Muon2_pT" Type="F" Min="6.49774373e-01" Max="6.97255402e+01"/>
    <Variable VarIndex="17" Expression="Muon2_eta" Label="Muon2_eta" Title="Muon2_eta" Unit="" Internal="Muon2_eta" Type="F" Min="-2.39947104e+00" Max="2.39915490e+00"/>
  </Variables>
  <Spectators NSpec="0"/>
  <Classes NClass="2">
    <Class Name="Signal" Index="0"/>
    <Class Name="Background" Index="1"/>
  </Classes>
  <Transformations NTransformations="1">
    <Transform Name="Normalize">
      <Selection>
        <Input NInputs="18">
          <Input Type="Variable" Label="Dimuon_CL" Expression="Dimuon_CL"/>
          <Input Type="Variable" Label="Dimuon_LS" Expression="Dimuon_LS"/>
          <Input Type="Variable" Label="Dimuon_CosAlpha" Expression="Dimuon_CosAlpha"/>
          <Input Type="Variable" Label="B_Eta" Expression="B_Eta"/>
          <Input Type="Variable" Label="Bz_LS" Expression="Bz_LS"/>
          <Input Type="Variable" Label="Bz_CL" Expression="Bz_CL"/>
          <Input Type="Variable" Label="Bz_CosAlpha" Expression="Bz_CosAlpha"/>
          <Input Type="Variable" Label="Kstar_Mass" Expression="Kstar_Mass"/>
          <Input Type="Variable" Label="track1_pT" Expression="track1_pT"/>
          <Input Type="Variable" Label="track1_eta" Expression="track1_eta"/>
          <Input Type="Variable" Label="track1_d0" Expression="track1_d0"/>
          <Input Type="Variable" Label="track2_pT" Expression="track2_pT"/>
          <Input Type="Variable" Label="track2_eta" Expression="track2_eta"/>
          <Input Type="Variable" Label="track2_d0" Expression="track2_d0"/>
          <Input Type="Variable" Label="Muon1_pT" Expression="Muon1_pT"/>
          <Input Type="Variable" Label="Muon1_eta" Expression="Muon1_eta"/>
          <Input Type="Variable" Label="Muon2_pT" Expression="Muon2_pT"/>
          <Input Type="Variable" Label="Muon2_eta" Expression="Muon2_eta"/>
        </Input>
        <Output NOutputs="18">
          <Output Type="Variable" Label="Dimuon_CL" Expression="Dimuon_CL"/>
          <Output Type="Variable" Label="Dimuon_LS" Expression="Dimuon_LS"/>
          <Output Type="Variable" Label="Dimuon_CosAlpha" Expression="Dimuon_CosAlpha"/>
          <Output Type="Variable" Label="B_Eta" Expression="B_Eta"/>
          <Output Type="Variable" Label="Bz_LS" Expression="Bz_LS"/>
          <Output Type="Variable" Label="Bz_CL" Expression="Bz_CL"/>
          <Output Type="Variable" Label="Bz_CosAlpha" Expression="Bz_CosAlpha"/>
          <Output Type="Variable" Label="Kstar_Mass" Expression="Kstar_Mass"/>
          <Output Type="Variable" Label="track1_pT" Expression="track1_pT"/>
          <Output Type="Variable" Label="track1_eta" Expression="track1_eta"/>
          <Output Type="Variable" Label="track1_d0" Expression="track1_d0"/>
          <Output Type="Variable" Label="track2_pT" Expression="track2_pT"/>
          <Output Type="Variable" Label="track2_eta" Expression="track2_eta"/>
          <Output Type="Variable" Label="track2_d0" Expression="track2_d0"/>
          <Output Type="Variable" Label="Muon1_pT" Expression="Muon1_pT"/>
          <Output Type="Variable" Label="Muon1_eta" Expression="Muon1_eta"/>
          <Output Type="Variable" Label="Muon2_pT" Expression="Muon2_pT"/>
          <Output Type="Variable" Label="Muon2_eta" Expression="Muon2_eta"/>
        </Output>
      </Selection>
      <Class ClassIndex="0">
        <Ranges>
          <Range Index="0" Min="1.0004992363974452e-03" Max="9.9997621774673462e-01"/>
          <Range Index="1" Min="9.1449841856956482e-03" Max="2.8773233032226562e+02"/>
          <Range Index="2" Min="-9.9999988079071045e-01" Max="1.0000000000000000e+00"/>
          <Range Index="3" Min="-2.4299306869506836e+00" Max="2.4944128990173340e+00"/>
          <Range Index="4" Min="1.0634060949087143e-02" Max="3.0750317382812500e+02"/>
          <Range Index="5" Min="1.0029306868091226e-03" Max="9.9999922513961792e-01"/>
          <Range Index="6" Min="-9.9999988079071045e-01" Max="1.0000000000000000e+00"/>
          <Range Index="7" Min="6.3880324363708496e-01" Max="4.6849789619445801e+00"/>
          <Range Index="8" Min="8.0029296875000000e-01" Max="2.7671875000000000e+01"/>
          <Range Index="9" Min="-2.3996703624725342e+00" Max="2.3998534679412842e+00"/>
          <Range Index="10" Min="1.6795313058537431e-05" Max="1.3772175598144531e+02"/>
          <Range Index="11" Min="8.0566406250000000e-01" Max="7.0140625000000000e+01"/>
          <Range Index="12" Min="-2.3994872570037842e+00" Max="2.3998534679412842e+00"/>
          <Range Index="13" Min="5.1065177103737369e-05" Max="1.3693295288085938e+02"/>
          <Range Index="14" Min="7.6484638452529907e-01" Max="1.3251274108886719e+02"/>
          <Range Index="15" Min="-2.3994712829589844e+00" Max="2.3994727134704590e+00"/>
          <Range Index="16" Min="6.4977437257766724e-01" Max="6.9725540161132812e+01"/>
          <Range Index="17" Min="-2.3994710445404053e+00" Max="2.3991549015045166e+00"/>
        </Ranges>
      </Class>
      <Class ClassIndex="1">
        <Ranges>
          <Range Index="0" Min="1.2007369659841061e-03" Max="9.9898093938827515e-01"/>
          <Range Index="1" Min="7.8390493988990784e-02" Max="5.8616580963134766e+01"/>
          <Range Index="2" Min="-9.9999761581420898e-01" Max="9.9999976158142090e-01"/>
          <Range Index="3" Min="3.3093741536140442e-01" Max="1.9573705196380615e+00"/>
          <Range Index="4" Min="3.8000732660293579e-02" Max="8.3870040893554688e+01"/>
          <Range Index="5" Min="1.1068036546930671e-03" Max="9.9947625398635864e-01"/>
          <Range Index="6" Min="-9.9971336126327515e-01" Max="9.9999970197677612e-01"/>
          <Range Index="7" Min="6.4992600679397583e-01" Max="4.1695671081542969e+00"/>
          <Range Index="8" Min="8.0029296875000000e-01" Max="4.4843750000000000e+00"/>
          <Range Index="9" Min="-2.3938107490539551e+00" Max="2.3910641670227051e+00"/>
          <Range Index="10" Min="1.1123440926894546e-03" Max="1.9575223922729492e+01"/>
          <Range Index="11" Min="8.1933593750000000e-01" Max="1.1414062500000000e+01"/>
          <Range Index="12" Min="-2.3593859672546387e+00" Max="2.3874020576477051e+00"/>
          <Range Index="13" Min="5.1065194420516491e-03" Max="5.7736499786376953e+01"/>
          <Range Index="14" Min="7.7102243900299072e-01" Max="5.0589122772216797e+01"/>
          <Range Index="15" Min="-2.3598847389221191e+00" Max="2.3823702335357666e+00"/>
          <Range Index="16" Min="7.1135997772216797e-01" Max="2.3709663391113281e+01"/>
          <Range Index="17" Min="-2.3886907100677490e+00" Max="2.3836059570312500e+00"/>
        </Ranges>
      </Class>
      <Class ClassIndex="2">
        <Ranges>
          <Range Index="0" Min="1.0004992363974452e-03" Max="9.9997621774673462e-01"/>
          <Range Index="1" Min="9.1449841856956482e-03" Max="2.8773233032226562e+02"/>
          <Range Index="2" Min="-9.9999988079071045e-01" Max="1.0000000000000000e+00"/>
          <Range Index="3" Min="-2.4299306869506836e+00" Max="2.4944128990173340e+00"/>
          <Range Index="4" Min="1.0634060949087143e-02" Max="3.0750317382812500e+02"/>
          <Range Index="5" Min="1.0029306868091226e-03" Max="9.9999922513961792e-01"/>
          <Range Index="6" Min="-9.9999988079071045e-01" Max="1.0000000000000000e+00"/>
          <Range Index="7" Min="6.3880324363708496e-01" Max="4.6849789619445801e+00"/>
          <Range Index="8" Min="8.0029296875000000e-01" Max="2.7671875000000000e+01"/>
          <Range Index="9" Min="-2.3996703624725342e+00" Max="2.3998534679412842e+00"/>
          <Range Index="10" Min="1.6795313058537431e-05" Max="1.3772175598144531e+02"/>
          <Range Index="11" Min="8.0566406250000000e-01" Max="7.0140625000000000e+01"/>
          <Range Index="12" Min="-2.3994872570037842e+00" Max="2.3998534679412842e+00"/>
          <Range Index="13" Min="5.1065177103737369e-05" Max="1.3693295288085938e+02"/>
          <Range Index="14" Min="7.6484638452529907e-01" Max="1.3251274108886719e+02"/>
          <Range Index="15" Min="-2.3994712829589844e+00" Max="2.3994727134704590e+00"/>
          <Range Index="16" Min="6.4977437257766724e-01" Max="6.9725540161132812e+01"/>
          <Range Index="17" Min="-2.3994710445404053e+00" Max="2.3991549015045166e+00"/>
        </Ranges>
      </Class>
    </Transform>
  </Transformations>
  <MVAPdfs/>
  <Weights>
    <Layout NLayers="3">
      <Layer Index="0" NNeurons="19">
        <Neuron NSynapses="23">
          -3.9154725331910117e-01 1.9428982580395371e+00 1.0963585754088920e+00 1.1217008905632666e+00 -2.2136521659679484e+00 -9.2579480164017380e-01 3.2308835108298489e-02 2.0219009655116844e+00 -1.2584905549062979e+00 -1.5118424436861970e+00 -1.6226015518053392e+00 -1.0688461066837602e+00 -7.6533818818218924e-01 -1.3616984653757638e+00 -6.7171077478413355e-01 1.0170016382052101e+00 -7.7743782892497726e-01 1.6413695630768605e+00 -1.6977874307420737e-01 -8.9505429907823286e-01 -2.5558741397029855e-01 3.5687513937188281e-01 -4.2606509412752944e-02 
        </Neuron>
        <Neuron NSynapses="23">
          3.6071782409413861e-01 -1.3962817325609691e+00 -2.0978965192358337e-01 1.2667488707182801e+00 -9.7581091551823995e-01 -1.5659544197527673e+00 1.9564664998580421e-03 6.8900446865646936e-01 1.4177342475175536e+00 -4.5964502553051140e-01 -2.7978235629520037e-01 5.3085122615078795e-01 -2.7722185955764761e-01 -1.7465320124607440e+00 1.7172579722065981e+00 -1.2083984260589793e+00 6.7916657890852594e-01 1.5480775226556178e+00 7.9580139691976015e-01 1.3789430170860861e+00 1.3989496317805028e+00 -5.5629338683335305e-01 -1.4429860249016258e+00 
        </Neuron>
        <Neuron NSynapses="23">
          5.0070278803973534e-01 9.1182831318499830e-02 2.9511325067978724e+00 2.0712353007779503e+00 5.7093744157445592e-01 1.2674064370967857e+00 -3.7361602688632707e+00 1.1898871993853035e+00 -1.5569645851609597e+00 -3.6454740664262841e-01 -1.2495158944094531e+00 -1.0112795440671669e+00 -6.1700654141727607e-01 2.0955515116064787e-02 -1.3249476221169376e+00 -4.7129682663172245e-01 3.7054188105081798e-01 4.3553538203962239e-01 1.9926163120687947e+00 -2.0903354977432014e+00 -1.9735670320187190e-01 -1.2593754505185504e+00 2.8269153827907795e-01 
        </Neuron>
        <Neuron NSynapses="23">
          -7.9058930596335930e-01 -6.0027311904350078e-01 -1.6004739625065609e+00 1.1255789701925412e+00 2.4102591903064434e+00 3.5763114026889316e+00 2.4687217828974353e-01 -1.5969665191196969e+00 -1.6580496693548226e+00 2.7366942502467290e-01 6.8828440985117556e-01 3.4665357950964903e+00 5.7741500805273593e-01 3.1311116321164667e-01 -6.1973216851701929e-01 -1.6177274875569545e+00 -9.0837404442110969e-01 9.2771140904198290e-01 -1.2550319834437003e+00 -3.1836280909242300e+00 -1.5316666533256054e+00 -2.8589870255355054e-01 -3.4167954031599301e-01 
        </Neuron>
        <Neuron NSynapses="23">
          1.8648398639105459e+00 -1.8817658211730535e+00 -6.8605644907876984e-01 1.2267966988509824e+00 -7.9213002741250160e-01 -1.4489350018274896e+00 -2.1487551594996632e+00 9.1613052616854707e-02 -2.0730545910045799e+00 -1.7476481223265738e+00 6.2616938764871632e-01 1.7384549257296897e+00 -1.2369195799047796e+00 1.4159591613932998e+00 -9.8529872716090183e-01 -6.1426779808321375e-01 -1.7685094735192064e-01 8.5007628213168784e-01 -1.8412333103274159e+00 1.0070568679802210e-02 4.6189932355654806e-01 8.6757246022850087e-01 -8.2025877252490331e-01 
        </Neuron>
        <Neuron NSynapses="23">
          1.6008061584163940e+00 3.6830523870494514e-01 -1.2886158821229123e+00 3.6865870867109390e-01 -6.2333911209980786e-01 -1.6619099886560258e+00 3.7000655302689928e-01 -4.0336073628224445e-01 1.3227821911394737e+00 6.7780872567854011e-01 3.2703812393796639e-01 -4.5126461574809101e-01 4.0383150991312822e-01 -2.2699429044030266e+00 8.7213248492343509e-01 2.6725966260600403e-01 -1.3350086230613165e+00 1.1398866766779929e+00 -1.6969399064418000e+00 -1.1377653293986478e+00 1.0401693722087575e+00 9.4684815562518998e-01 -1.7976432131018968e-01 
        </Neuron>
        <Neuron NSynapses="23">
          3.6935542332274238e-02 1.2666501730929660e+00 1.6470817283908676e+00 2.0868327514008753e-01 -1.1663367302795828e+00 -8.1618406236867702e-01 -4.1810424854284935e+00 1.4644640667202673e+00 1.2091898610612972e+00 -5.0018086785276283e-01 -1.1363660290732679e-01 7.9498645687781988e-01 -1.4465852227226588e+00 9.3265824457152635e-01 7.6837491400734048e-01 -1.5871354700492031e+00 -1.4548474444659412e+00 4.0314178677791546e-01 6.9445477862751392e-01 4.4220973535025498e-01 5.7537611032226355e-01 -1.7163643904036410e+00 7.0344452205321950e-01 
        </Neuron>
        <Neuron NSynapses="23">
          9.2691394570565377e-01 5.6768900194676297e-01 1.3867606376950279e+00 1.2171779342950368e+00 -1.4358634951762211e-02 2.5326365497472931e-02 6.0454715506141699e-01 -8.4617745724184990e-01 -7.8428628442215664e-01 1.3422466716010792e+00 1.2375364450458350e+00 7.8146578051108562e-01 1.8417058408982858e+00 -4.5993082844050415e-01 -1.3669366535308356e+00 1.3813551743555212e+00 2.1238541755495835e-01 3.3839335931246584e-01 -5.1012509850671883e-01 -1.6889644781957969e+00 1.4282627974326401e+00 1.0438380476815934e+00 -2.5988722672286824e+00 
        </Neuron>
        <Neuron NSynapses="23">
          5.4433661553258406e-02 -6.0248824283368252e-01 3.5062896840212171e-01 1.5627695371518668e+00 -3.2326357765521774e-01 7.0082833855389937e-02 -1.2598301681795046e+00 1.0464037206713290e+00 1.2606330694479713e+00 9.5158778369279062e-01 1.5696739675981466e-01 -9.7396719860241765e-01 -2.2596145801368341e+00 8.0952101328561099e-01 4.3146307102627407e-01 -1.3376232488194584e+00 -9.7413667328349951e-01 5.4587868801278028e-01 -5.8534245827897391e-01 -1.7915747933237023e+00 1.5915670974525622e+00 1.9908988265927097e+00 -1.6647315679891619e-01 
        </Neuron>
        <Neuron NSynapses="23">
          -2.0375532552357159e-01 1.6885449054859123e+00 1.3398285897000262e+00 1.2276559305961654e+00 6.5179782208432535e-01 -1.2858643368304441e+00 -8.5093173594316296e-01 1.7748534657360140e+00 1.5504031600426449e+00 1.2602211558264276e+00 3.2396299549019714e-01 1.5357820806145177e+00 -1.3815706548044500e+00 -1.1705305963525094e+00 -6.1782140318353596e-01 -1.5060821081149887e+00 8.8939773916529818e-01 1.5420473792786769e+00 -1.0194121557139959e+00 1.4518229786709577e-01 7.6885437599195555e-02 -1.8807854525205381e+00 1.0016436796235415e+00 
        </Neuron>
        <Neuron NSynapses="23">
          1.2948424053124068e+00 -5.9535242997306337e-02 8.5566960135551062e-01 -1.5389622531140448e+00 1.8711037248953359e+00 -1.4593947169924262e+00 4.9837543268003964e-01 1.0111110249072075e-01 -1.7171282525557052e+00 -1.4618460200963135e+00 -1.9726815505328466e+00 -7.1238199014459114e-01 -2.0411739682908525e+00 -2.0045404600449630e+00 -1.9561147642648318e+00 -1.6632561312244939e-01 -1.3544375989512663e+00 -1.3575998081413605e+00 1.1651115119656554e+00 -6.9070604572847727e-01 3.7060154650127897e-01 1.5370970675535106e-01 3.9266221479536345e-01 
        </Neuron>
        <Neuron NSynapses="23">
          2.1494442017880320e+00 1.3608972346270733e+00 -8.2424784023034325e-01 -1.1763057597161004e+00 -9.9819552532586275e-01 -5.3933879404609175e-01 -2.2109628055567674e+00 3.6054953650987398e-01 -9.6853329231736895e-02 1.8788682600794642e+00 -4.4433862973979665e-01 2.3077971986205670e-01 -7.0137147467662120e-01 -2.1753323045986197e+00 1.2096779013349845e+00 1.4300283671198679e+00 -1.1704756509970027e+00 -9.5128598626287253e-01 5.8032871490673887e-01 1.2280057196518965e+00 6.1920993202449748e-01 9.0961740339141700e-02 5.0433051771640047e-01 
        </Neuron>
        <Neuron NSynapses="23">
          1.3547647141431052e+00 1.1643865327392471e+00 -2.1047287514053789e-01 -4.9194741488503707e-01 5.6400059278368475e-01 -7.9625266128743433e-02 -3.3846322181353983e-01 -5.5753709703604060e-01 -1.3122318803760500e+00 -1.4715082686288588e+00 -1.4362219860362881e+00 2.1341628398385488e+00 -2.2949556743481674e+00 1.2885238526004474e+00 -1.6891111109446515e+00 2.4161735125778794e+00 -1.2320974355664585e+00 2.0850820111826911e-02 1.2176144543320910e+00 -1.3467830921116308e+00 4.5742925714079524e-01 1.6557514143905455e-01 1.6559966304353044e+00 
        </Neuron>
        <Neuron NSynapses="23">
          -1.1743064379203503e+00 -1.8506458147439393e+00 -9.7551141103553318e-01 2.5284879628262638e+00 -4.1182417736501886e-01 7.4840875598146117e-01 -1.2433479921948480e+00 -1.1614277767987951e+00 -1.9979960439165534e+00 -1.1169900863158009e+00 -1.5112008079478350e+00 1.1531882016308823e+00 -1.2727643470976744e+00 -1.5497887533633921e+00 1.7397854742584911e+00 -3.5425618211725202e-01 -1.0564947659702328e+00 2.3441337522365480e+00 -1.8238482041867459e+00 6.7899013055922330e-01 1.2253930587752497e+00 -2.2018478869482011e-01 -5.4468180542551725e-01 
        </Neuron>
        <Neuron NSynapses="23">
          2.5118499366349839e-01 -1.2074635202293265e+00 4.8485837578617264e-01 2.3976227271709765e+00 1.4265838932093526e+00 1.7081203537193177e+00 -1.4088445959300571e+00 1.0792071558450220e+00 -2.3227833131010840e+00 6.1059925880631805e-01 -1.9106724416011738e+00 -1.3347913050175437e+00 2.2216859908270883e-01 9.6055179526366941e-01 4.2624031171610960e-01 1.1100668213611200e+00 -2.6803817386652196e-01 -1.6551479591399651e-01 5.6183909773688971e-02 -1.4362806222481437e+00 2.0288313120411559e+00 -4.5052613120494067e+00 6.2010608605359041e-01 
        </Neuron>
        <Neuron NSynapses="23">
          -1.5406490307099694e+00 -1.9836779983503705e-01 -9.1901838205079467e-01 2.2422679816361521e-01 -9.0402604750781679e-01 4.9845064164061065e-01 6.4798607412007825e-01 8.1353191617279641e-01 2.3200838448996533e-01 -1.4829132416627659e+00 -1.3486222426169518e+00 -1.6170404870699535e+00 4.5892265178951269e-01 1.8993627434957314e-01 -1.9145800183027626e+00 6.3076951168438233e-01 -1.9526845527099623e+00 -1.3402168097968714e+00 -2.3578601160691894e+00 1.3844451211158699e+00 -1.1290206024046217e+00 3.6809860885953799e-01 -1.7634217893789490e+00 
        </Neuron>
        <Neuron NSynapses="23">
          -6.5487578666504620e-01 -1.6379521998177580e+00 1.8730816348516772e+00 -1.3990497770100212e+00 -1.2226399923451088e+00 1.6762632435666902e+00 -1.1676083033733491e+00 3.4437798362208361e-01 -2.7798366381495654e-01 1.3797705980996973e+00 1.6648535450000590e+00 -5.8354361045184833e-01 -6.9779714325222286e-01 -9.3919160706456883e-01 -1.7872836401886001e+00 1.3897097888712973e+00 6.1092447795144644e-01 2.3074596613487722e-01 1.4219681898623140e+00 9.0940450297646458e-01 1.8932372573537704e+00 -2.2317716427434049e+00 3.4356486882525274e+00 
        </Neuron>
        <Neuron NSynapses="23">
          5.9863048387288864e-01 -1.6989612864068933e+00 -4.0973829932773753e-01 -5.8019600485456868e-01 8.2324517463337765e-01 4.1148676612457213e-01 2.8470423252496707e-01 1.9052712956017330e+00 -2.7399767313758708e-02 1.5300103327813275e+00 1.6990260095606986e+00 -3.3838229862935748e-01 -1.2906475840820675e+00 3.2888639027494451e+00 -2.8017310426853332e+00 6.0713242598068440e-01 2.3124545793165807e+00 -5.1019439970564684e-01 -1.9964341115480408e+00 7.8320468900628992e-01 -1.1258509456825023e+00 1.1071616907240425e+00 -3.1768085756133839e+00 
        </Neuron>
        <Neuron NSynapses="23">
          -1.5724088960514984e-01 -1.9722193206516994e-01 1.9852792701144015e+00 8.9881793448089253e-01 1.3986586565719441e+00 -1.1916608718275317e+00 -8.4923205037437077e-01 3.8284999737099906e-01 2.2423445210940849e+00 -1.7062671198166264e+00 -1.1850362069262970e+00 -9.2724782450698917e-01 -1.4990954042191889e+00 -1.0925025923362337e+00 -1.4715408403108521e+00 1.2865059890593762e+00 9.5500485570333982e-01 -1.9752523243396218e+00 -1.6142357081794816e+00 4.3711786940212799e-01 1.4613966290578044e+00 1.4009336457516002e+00 1.6747825151481801e+00 
        </Neuron>
      </Layer>
      <Layer Index="1" NNeurons="24">
        <Neuron NSynapses="1">
          -3.8428110201771376e-01 
        </Neuron>
        <Neuron NSynapses="1">
          -1.4999417147417591e+00 
        </Neuron>
        <Neuron NSynapses="1">
          1.3326482187324795e+00 
        </Neuron>
        <Neuron NSynapses="1">
          -1.0855619538484174e+00 
        </Neuron>
        <Neuron NSynapses="1">
          -1.4620246423404104e+00 
        </Neuron>
        <Neuron NSynapses="1">
          -9.2267033295373702e-01 
        </Neuron>
        <Neuron NSynapses="1">
          -2.0463900472553616e+00 
        </Neuron>
        <Neuron NSynapses="1">
          9.7492148445494572e-02 
        </Neuron>
        <Neuron NSynapses="1">
          1.1038113899319550e+00 
        </Neuron>
        <Neuron NSynapses="1">
          6.7257066786690334e-01 
        </Neuron>
        <Neuron NSynapses="1">
          5.1497327011104610e-01 
        </Neuron>
        <Neuron NSynapses="1">
          -1.2759129241640137e+00 
        </Neuron>
        <Neuron NSynapses="1">
          -1.1064153225846121e+00 
        </Neuron>
        <Neuron NSynapses="1">
          1.0941017608488839e+00 
        </Neuron>
        <Neuron NSynapses="1">
          -5.7393675485099227e-01 
        </Neuron>
        <Neuron NSynapses="1">
          1.3275939302244004e+00 
        </Neuron>
        <Neuron NSynapses="1">
          1.8487084642834015e+00 
        </Neuron>
        <Neuron NSynapses="1">
          1.3770229573734545e+00 
        </Neuron>
        <Neuron NSynapses="1">
          -1.0144312779538907e+00 
        </Neuron>
        <Neuron NSynapses="1">
          1.2574349347980200e+00 
        </Neuron>
        <Neuron NSynapses="1">
          -2.2255992885797986e+00 
        </Neuron>
        <Neuron NSynapses="1">
          2.6907960548481977e+00 
        </Neuron>
        <Neuron NSynapses="1">
          2.5629198639302548e+00 
        </Neuron>
        <Neuron NSynapses="1">
          3.4517072093273332e-01 
        </Neuron>
      </Layer>
      <Layer Index="2" NNeurons="1">
        <Neuron NSynapses="0"/>
      </Layer>
    </Layout>
  </Weights>
</MethodSetup>
