<?xml version="1.0"?>
<MethodSetup Method="MLP::MLP">
  <GeneralInfo>
    <Info name="TMVA Release" value="4.2.1 [262657]"/>
    <Info name="ROOT Release" value="6.22/08 [398856]"/>
    <Info name="Creator" value="root"/>
    <Info name="Date" value="Tue Oct  5 13:43:38 2021"/>
    <Info name="Host" value="Linux root-ubuntu-2004-2 5.4.0-33-generic #37-Ubuntu SMP Thu May 21 12:53:59 UTC 2020 x86_64 x86_64 x86_64 GNU/Linux"/>
    <Info name="Dir" value="/work"/>
    <Info name="Training events" value="16984"/>
    <Info name="TrainingTime" value="1.67676389e+01"/>
    <Info name="AnalysisType" value="Classification"/>
  </GeneralInfo>
  <Options>
    <Option name="NCycles" modified="Yes">100</Option>
    <Option name="HiddenLayers" modified="Yes">N+5</Option>
    <Option name="NeuronType" modified="Yes">tanh</Option>
    <Option name="RandomSeed" modified="No">1</Option>
    <Option name="EstimatorType" modified="No">CE</Option>
    <Option name="NeuronInputType" modified="No">sum</Option>
    <Option name="V" modified="Yes">False</Option>
    <Option name="VerbosityLevel" modified="No">Default</Option>
    <Option name="VarTransform" modified="Yes">N</Option>
    <Option name="H" modified="Yes">False</Option>
    <Option name="CreateMVAPdfs" modified="No">False</Option>
    <Option name="IgnoreNegWeightsInTraining" modified="No">False</Option>
    <Option name="TrainingMethod" modified="No">BP</Option>
    <Option name="LearningRate" modified="No">2.000000e-02</Option>
    <Option name="DecayRate" modified="No">1.000000e-02</Option>
    <Option name="TestRate" modified="Yes">5</Option>
    <Option name="EpochMonitoring" modified="No">False</Option>
    <Option name="Sampling" modified="No">1.000000e+00</Option>
    <Option name="SamplingEpoch" modified="No">1.000000e+00</Option>
    <Option name="SamplingImportance" modified="No">1.000000e+00</Option>
    <Option name="SamplingTraining" modified="No">True</Option>
    <Option name="SamplingTesting" modified="No">False</Option>
    <Option name="ResetStep" modified="No">50</Option>
    <Option name="Tau" modified="No">3.000000e+00</Option>
    <Option name="BPMode" modified="No">sequential</Option>
    <Option name="BatchSize" modified="No">-1</Option>
    <Option name="ConvergenceImprove" modified="No">1.000000e-30</Option>
    <Option name="ConvergenceTests" modified="No">-1</Option>
    <Option name="UseRegulator" modified="Yes">False</Option>
    <Option name="UpdateLimit" modified="No">10000</Option>
    <Option name="CalculateErrors" modified="No">False</Option>
    <Option name="WeightRange" modified="No">1.000000e+00</Option>
  </Options>
  <Variables NVar="16">
    <Variable VarIndex="0" Expression="Dimuon_CL" Label="Dimuon_CL" Title="Dimuon_CL" Unit="" Internal="Dimuon_CL" Type="F" Min="1.01317663e-03" Max="9.99976218e-01"/>
    <Variable VarIndex="1" Expression="Dimuon_LS" Label="Dimuon_LS" Title="Dimuon_LS" Unit="" Internal="Dimuon_LS" Type="F" Min="1.00234672e-02" Max="2.87732330e+02"/>
    <Variable VarIndex="2" Expression="B_Eta" Label="B_Eta" Title="B_Eta" Unit="" Internal="B_Eta" Type="F" Min="-2.41874504e+00" Max="2.37483788e+00"/>
    <Variable VarIndex="3" Expression="Bz_LS" Label="Bz_LS" Title="Bz_LS" Unit="" Internal="Bz_LS" Type="F" Min="1.06340609e-02" Max="3.07503174e+02"/>
    <Variable VarIndex="4" Expression="Bz_CL" Label="Bz_CL" Title="Bz_CL" Unit="" Internal="Bz_CL" Type="F" Min="1.00600766e-03" Max="9.99998510e-01"/>
    <Variable VarIndex="5" Expression="Kstar_Mass" Label="Kstar_Mass" Title="Kstar_Mass" Unit="" Internal="Kstar_Mass" Type="F" Min="6.53166413e-01" Max="4.56265450e+00"/>
    <Variable VarIndex="6" Expression="track1_pT" Label="track1_pT" Title="track1_pT" Unit="" Internal="track1_pT" Type="F" Min="8.00292969e-01" Max="2.68750000e+01"/>
    <Variable VarIndex="7" Expression="track1_eta" Label="track1_eta" Title="track1_eta" Unit="" Internal="track1_eta" Type="F" Min="-2.39967036e+00" Max="2.39985347e+00"/>
    <Variable VarIndex="8" Expression="track1_d0" Label="track1_d0" Title="track1_d0" Unit="" Internal="track1_d0" Type="F" Min="1.67953131e-05" Max="1.37721756e+02"/>
    <Variable VarIndex="9" Expression="track2_pT" Label="track2_pT" Title="track2_pT" Unit="" Internal="track2_pT" Type="F" Min="8.06640625e-01" Max="7.01406250e+01"/>
    <Variable VarIndex="10" Expression="track2_eta" Label="track2_eta" Title="track2_eta" Unit="" Internal="track2_eta" Type="F" Min="-2.39948726e+00" Max="2.39948726e+00"/>
    <Variable VarIndex="11" Expression="track2_d0" Label="track2_d0" Title="track2_d0" Unit="" Internal="track2_d0" Type="F" Min="5.10651771e-05" Max="1.36932953e+02"/>
    <Variable VarIndex="12" Expression="Muon1_pT" Label="Muon1_pT" Title="Muon1_pT" Unit="" Internal="Muon1_pT" Type="F" Min="7.64846385e-01" Max="9.28248444e+01"/>
    <Variable VarIndex="13" Expression="Muon1_eta" Label="Muon1_eta" Title="Muon1_eta" Unit="" Internal="Muon1_eta" Type="F" Min="-2.39947128e+00" Max="2.39877582e+00"/>
    <Variable VarIndex="14" Expression="Muon2_pT" Label="Muon2_pT" Title="Muon2_pT" Unit="" Internal="Muon2_pT" Type="F" Min="6.64288223e-01" Max="4.83530350e+01"/>
    <Variable VarIndex="15" Expression="Muon2_eta" Label="Muon2_eta" Title="Muon2_eta" Unit="" Internal="Muon2_eta" Type="F" Min="-2.39892054e+00" Max="2.39915490e+00"/>
  </Variables>
  <Spectators NSpec="0"/>
  <Classes NClass="2">
    <Class Name="Signal" Index="0"/>
    <Class Name="Background" Index="1"/>
  </Classes>
  <Transformations NTransformations="1">
    <Transform Name="Normalize">
      <Selection>
        <Input NInputs="16">
          <Input Type="Variable" Label="Dimuon_CL" Expression="Dimuon_CL"/>
          <Input Type="Variable" Label="Dimuon_LS" Expression="Dimuon_LS"/>
          <Input Type="Variable" Label="B_Eta" Expression="B_Eta"/>
          <Input Type="Variable" Label="Bz_LS" Expression="Bz_LS"/>
          <Input Type="Variable" Label="Bz_CL" Expression="Bz_CL"/>
          <Input Type="Variable" Label="Kstar_Mass" Expression="Kstar_Mass"/>
          <Input Type="Variable" Label="track1_pT" Expression="track1_pT"/>
          <Input Type="Variable" Label="track1_eta" Expression="track1_eta"/>
          <Input Type="Variable" Label="track1_d0" Expression="track1_d0"/>
          <Input Type="Variable" Label="track2_pT" Expression="track2_pT"/>
          <Input Type="Variable" Label="track2_eta" Expression="track2_eta"/>
          <Input Type="Variable" Label="track2_d0" Expression="track2_d0"/>
          <Input Type="Variable" Label="Muon1_pT" Expression="Muon1_pT"/>
          <Input Type="Variable" Label="Muon1_eta" Expression="Muon1_eta"/>
          <Input Type="Variable" Label="Muon2_pT" Expression="Muon2_pT"/>
          <Input Type="Variable" Label="Muon2_eta" Expression="Muon2_eta"/>
        </Input>
        <Output NOutputs="16">
          <Output Type="Variable" Label="Dimuon_CL" Expression="Dimuon_CL"/>
          <Output Type="Variable" Label="Dimuon_LS" Expression="Dimuon_LS"/>
          <Output Type="Variable" Label="B_Eta" Expression="B_Eta"/>
          <Output Type="Variable" Label="Bz_LS" Expression="Bz_LS"/>
          <Output Type="Variable" Label="Bz_CL" Expression="Bz_CL"/>
          <Output Type="Variable" Label="Kstar_Mass" Expression="Kstar_Mass"/>
          <Output Type="Variable" Label="track1_pT" Expression="track1_pT"/>
          <Output Type="Variable" Label="track1_eta" Expression="track1_eta"/>
          <Output Type="Variable" Label="track1_d0" Expression="track1_d0"/>
          <Output Type="Variable" Label="track2_pT" Expression="track2_pT"/>
          <Output Type="Variable" Label="track2_eta" Expression="track2_eta"/>
          <Output Type="Variable" Label="track2_d0" Expression="track2_d0"/>
          <Output Type="Variable" Label="Muon1_pT" Expression="Muon1_pT"/>
          <Output Type="Variable" Label="Muon1_eta" Expression="Muon1_eta"/>
          <Output Type="Variable" Label="Muon2_pT" Expression="Muon2_pT"/>
          <Output Type="Variable" Label="Muon2_eta" Expression="Muon2_eta"/>
        </Output>
      </Selection>
      <Class ClassIndex="0">
        <Ranges>
          <Range Index="0" Min="1.0131766321137547e-03" Max="9.9997621774673462e-01"/>
          <Range Index="1" Min="1.0023467242717743e-02" Max="2.8773233032226562e+02"/>
          <Range Index="2" Min="-2.4187450408935547e+00" Max="2.3748378753662109e+00"/>
          <Range Index="3" Min="1.0634060949087143e-02" Max="3.0750317382812500e+02"/>
          <Range Index="4" Min="1.0060076601803303e-03" Max="9.9999850988388062e-01"/>
          <Range Index="5" Min="6.5316641330718994e-01" Max="4.5626544952392578e+00"/>
          <Range Index="6" Min="8.0029296875000000e-01" Max="2.6875000000000000e+01"/>
          <Range Index="7" Min="-2.3996703624725342e+00" Max="2.3998534679412842e+00"/>
          <Range Index="8" Min="1.6795313058537431e-05" Max="1.3772175598144531e+02"/>
          <Range Index="9" Min="8.0664062500000000e-01" Max="7.0140625000000000e+01"/>
          <Range Index="10" Min="-2.3994872570037842e+00" Max="2.3994872570037842e+00"/>
          <Range Index="11" Min="5.1065177103737369e-05" Max="1.3693295288085938e+02"/>
          <Range Index="12" Min="7.6484638452529907e-01" Max="9.2824844360351562e+01"/>
          <Range Index="13" Min="-2.3994712829589844e+00" Max="2.3987758159637451e+00"/>
          <Range Index="14" Min="6.6428822278976440e-01" Max="4.8353034973144531e+01"/>
          <Range Index="15" Min="-2.3989205360412598e+00" Max="2.3991549015045166e+00"/>
        </Ranges>
      </Class>
      <Class ClassIndex="1">
        <Ranges>
          <Range Index="0" Min="1.3021446065977216e-03" Max="9.9649584293365479e-01"/>
          <Range Index="1" Min="6.0967274010181427e-02" Max="1.2451323699951172e+02"/>
          <Range Index="2" Min="-1.1814342737197876e+00" Max="1.9803456068038940e+00"/>
          <Range Index="3" Min="4.9001779407262802e-02" Max="1.2911480712890625e+02"/>
          <Range Index="4" Min="1.0092066368088126e-03" Max="9.9991023540496826e-01"/>
          <Range Index="5" Min="7.3099267482757568e-01" Max="4.4390373229980469e+00"/>
          <Range Index="6" Min="8.0029296875000000e-01" Max="4.4843750000000000e+00"/>
          <Range Index="7" Min="-2.3954589366912842e+00" Max="2.3910641670227051e+00"/>
          <Range Index="8" Min="1.6450935509055853e-03" Max="2.6438682556152344e+01"/>
          <Range Index="9" Min="8.1445312500000000e-01" Max="1.8098571777343750e+01"/>
          <Range Index="10" Min="-2.3641469478607178e+00" Max="2.3797113895416260e+00"/>
          <Range Index="11" Min="2.6631215587258339e-03" Max="5.7736499786376953e+01"/>
          <Range Index="12" Min="7.9426497220993042e-01" Max="5.0589122772216797e+01"/>
          <Range Index="13" Min="-2.3917002677917480e+00" Max="2.3940892219543457e+00"/>
          <Range Index="14" Min="7.0162069797515869e-01" Max="2.2966093063354492e+01"/>
          <Range Index="15" Min="-2.3886907100677490e+00" Max="2.3832483291625977e+00"/>
        </Ranges>
      </Class>
      <Class ClassIndex="2">
        <Ranges>
          <Range Index="0" Min="1.0131766321137547e-03" Max="9.9997621774673462e-01"/>
          <Range Index="1" Min="1.0023467242717743e-02" Max="2.8773233032226562e+02"/>
          <Range Index="2" Min="-2.4187450408935547e+00" Max="2.3748378753662109e+00"/>
          <Range Index="3" Min="1.0634060949087143e-02" Max="3.0750317382812500e+02"/>
          <Range Index="4" Min="1.0060076601803303e-03" Max="9.9999850988388062e-01"/>
          <Range Index="5" Min="6.5316641330718994e-01" Max="4.5626544952392578e+00"/>
          <Range Index="6" Min="8.0029296875000000e-01" Max="2.6875000000000000e+01"/>
          <Range Index="7" Min="-2.3996703624725342e+00" Max="2.3998534679412842e+00"/>
          <Range Index="8" Min="1.6795313058537431e-05" Max="1.3772175598144531e+02"/>
          <Range Index="9" Min="8.0664062500000000e-01" Max="7.0140625000000000e+01"/>
          <Range Index="10" Min="-2.3994872570037842e+00" Max="2.3994872570037842e+00"/>
          <Range Index="11" Min="5.1065177103737369e-05" Max="1.3693295288085938e+02"/>
          <Range Index="12" Min="7.6484638452529907e-01" Max="9.2824844360351562e+01"/>
          <Range Index="13" Min="-2.3994712829589844e+00" Max="2.3987758159637451e+00"/>
          <Range Index="14" Min="6.6428822278976440e-01" Max="4.8353034973144531e+01"/>
          <Range Index="15" Min="-2.3989205360412598e+00" Max="2.3991549015045166e+00"/>
        </Ranges>
      </Class>
    </Transform>
  </Transformations>
  <MVAPdfs/>
  <Weights>
    <Layout NLayers="3">
      <Layer Index="0" NNeurons="17">
        <Neuron NSynapses="21">
          -2.8971680780671822e+00 7.2947133428632982e-01 -7.1237772573479330e-01 2.5714784384547542e+00 -1.6797453924749919e+00 -1.7350384932826262e+00 -6.7149585230409183e+00 1.8984510760937043e+00 4.6240047195394522e+00 -6.2188518618302000e+00 -4.1056464501738077e+00 -1.3891873154446149e-01 -2.6255505196375029e+00 -6.8370726769108603e-01 -2.2466610257339217e+00 4.4572606532272934e+00 -7.2755345372839467e-02 -6.7230517405471513e-01 -1.4590061336738260e+00 1.3840824035353183e+00 -8.0811743472377673e-01 
        </Neuron>
        <Neuron NSynapses="21">
          -4.1950457528675722e+00 2.8708366119034836e+00 3.2447294889654194e-01 1.8651076127600839e+00 -1.0816236456575579e+00 2.8726070419325684e+00 -2.9766579735680936e+00 -1.8911068834827911e+00 -3.4849049647369705e+00 -3.6979818689983399e+00 -9.1150686919112434e-01 -7.9967801599033117e-01 -3.0119406106816857e+00 1.1647995445233605e+00 -6.1667535254485850e-01 -2.2404894630513010e+00 5.3919860118867406e+00 -3.9938432572607860e+00 -1.8195004562454078e+00 1.2046384459717376e+00 1.5007855998954525e+00 
        </Neuron>
        <Neuron NSynapses="21">
          2.0933194761977347e+00 4.7478650460942609e+00 3.2007719252837563e+00 -5.1146450031252320e+00 1.3006226643583165e+00 -2.0033155314723632e+00 1.9464421291773583e+01 1.4324506945377822e+00 3.8503998373719121e+01 1.6971020558076951e+01 2.2010720208250358e+00 1.3202008428507168e+00 -3.8742145723580688e+00 -1.4477103240227889e+00 -4.0769667308064905e+00 9.8512059843497068e-01 2.5317522192136170e+00 4.8692428913464676e+00 3.4398820710052931e+00 3.7145024135597876e-01 4.5871609059766350e-01 
        </Neuron>
        <Neuron NSynapses="21">
          -3.8641371779128648e+00 4.7803311174327874e+00 -4.9248931766097764e-01 3.5510499158970474e+00 -2.1110105445558518e+00 1.9367167971978183e+00 -1.8936666791828145e+00 -6.7717335974720838e-01 -7.8718781040026000e+00 -3.1869014990744522e+00 -1.6745940732033857e+00 8.4215659153582423e-01 -3.9169355495446183e+00 -9.2473179512482762e-01 -5.7680750290754244e+00 2.0007472125894052e+00 4.1912129405882812e+00 -1.0670750419682031e+00 -2.7967986345705138e+00 9.9417804931827325e-01 -1.1138905774751398e-01 
        </Neuron>
        <Neuron NSynapses="21">
          4.0389800454684432e-01 -2.5793973967765980e+00 5.9082847211552536e-01 -1.0394285450693148e+00 -9.8791334605855219e-01 -2.6352171890290745e+00 -1.8869084836776449e+00 -1.8285916820461010e-01 -5.0628747548582274e+00 2.5990590262335607e+00 -2.8408452307934091e+00 1.2526918708060450e+00 -7.5253333954451920e+00 -1.8873268350464920e+00 3.0314534790394929e+00 1.0156589830318270e-01 -3.5441175413743928e+00 -1.1500066942548173e+00 7.4695954332361747e-01 1.6661153601340251e+00 -1.1655421918968740e+00 
        </Neuron>
        <Neuron NSynapses="21">
          9.1273381356657595e+00 1.5357182421026918e+00 5.6798821063614744e+00 -4.9929039166727716e+00 6.1059532406656236e-01 -1.8554400018513728e+00 2.0511435070014485e+01 1.3960521916103519e-01 1.8964901095997515e+01 -3.2684113414034033e+00 2.2165614986750319e+00 -7.3005960763811731e-02 7.2390174967681142e+00 1.1944660477114224e+00 2.0058732923241461e+01 -2.6442207433860467e+01 -2.9092343748877142e-01 -2.9896280684082011e+00 8.7353808557780575e+00 7.7858821913538845e-01 -9.9731571930727583e-02 
        </Neuron>
        <Neuron NSynapses="21">
          -3.5941688320558018e+00 -3.7694962759698845e+00 1.3687735109165884e+00 2.9014509412884975e+00 -6.3416733519170687e-01 -2.5622619287370629e-01 -1.6082232425951777e+00 -1.5451077700423919e+00 -3.5697198495907396e+00 -2.8448584052253807e+00 -7.6613605538333751e-01 -2.1790348667637347e+00 -2.4658368368039576e+00 3.0031453994670421e+00 3.2234603888759366e+00 1.6101920387275748e-01 2.2454904011286199e+00 -2.8600993409097359e+00 -3.7981060297290861e+00 1.5694113175376867e+00 2.1962569362504158e+00 
        </Neuron>
        <Neuron NSynapses="21">
          -3.2847811329599823e+00 -3.9325543365582396e+00 6.5473130202551637e+00 -6.9047254196879173e+00 -2.6752121315579319e-01 6.2912369842626326e-01 2.1610900568293854e+00 -6.6720604959576779e-01 2.7370381979130376e+00 -3.0953865300243160e+00 -6.2052836903460015e-02 6.7967654366045782e-01 -4.6896355703035075e+00 1.8244854582610353e+00 -8.0732078321096488e+00 4.7343712522731334e+00 2.5214258524993549e+00 1.7698102643174030e+00 -1.8142346425172848e+00 -6.0254646288203517e-01 9.8513793305680686e-01 
        </Neuron>
        <Neuron NSynapses="21">
          -2.6718179868960470e+00 -3.1899104414706745e+00 4.7569754831357640e+00 3.1734340537866306e+00 -1.0947305017499518e+00 2.7143390900693651e+00 3.3436111999266077e-01 -1.9393624413405699e+00 6.1928104702029019e-01 -2.5495142181680506e+00 -2.1628918306609961e+00 -2.1521029525036650e+00 -3.8527458611305043e+00 2.4286143388763861e+00 7.5953450152361155e+00 -3.4225342561690293e+00 3.2310013467998853e+00 -2.9682897778316599e+00 -1.2889482398577055e+00 1.7691312153904224e+00 2.6170983941023412e-01 
        </Neuron>
        <Neuron NSynapses="21">
          -2.5071669796782845e+00 -9.9552618442789753e-01 2.9613209282849953e+00 3.3124640048264316e+00 3.1472120160086786e-01 1.8600822137485480e+00 -7.3831133060996901e-01 -2.1050544618575033e+00 -3.2338836647196273e-01 -3.2631632749770105e+00 -3.9210663844100089e+00 -1.0793994405820584e+00 -7.1603347998642364e-01 1.2924444159781221e+00 -6.1921386115411448e-01 4.9042785358098112e-01 4.4067305157855614e+00 -3.3101459305541017e+00 -2.3451866869443765e+00 1.6350733315625277e+00 2.1013680549393112e+00 
        </Neuron>
        <Neuron NSynapses="21">
          -2.8822733602815509e+00 -1.6393553448139622e+00 4.6201422824619733e+00 -4.5357520211081921e+00 1.4494388367642603e+00 1.5616727008237885e+00 3.3513103039879004e+00 1.4626183339564464e-01 -2.8814897317060231e+00 -8.1870282546091868e+00 -1.1794551584352524e+00 -3.5307446533602965e-01 -6.1006323960149764e+00 8.3200554612682298e-01 -1.0218285134351465e+01 6.4138074251096011e+00 2.8304181160200921e+00 -2.6432887202426786e-01 -2.5056511152968932e+00 -1.0769489479877952e+00 6.1926077659043666e-01 
        </Neuron>
        <Neuron NSynapses="21">
          -3.7382275718946048e+00 6.6894765689123392e-01 2.2872634848741025e+00 2.4477603526501861e+00 -2.6936700680005115e+00 1.9120883120359116e+00 7.1313172037792434e+00 -1.5463090257966718e+00 -5.7476056350761695e+00 -4.4885756088733499e+00 -3.2239213713408308e+00 -2.3711382831392940e+00 -5.1425451627231249e+00 -4.6746446665073743e-01 6.0486821233099813e-02 1.4171590258646288e-01 1.6409329788739351e+00 -1.4199498414368588e+00 -3.5179218371602405e+00 1.5715540587130755e-01 -3.5928072763737162e-01 
        </Neuron>
        <Neuron NSynapses="21">
          -1.5554357407892809e+00 6.3914834653309631e+00 3.0047442953000254e+00 -2.4485127521631675e-01 -2.3226007670011128e+00 7.3473608851924632e-01 5.7068465688442229e+00 -1.6353728047968346e+00 -1.7875792708005569e+00 -3.5037298066573759e+00 -9.5904109599067355e-01 -7.7673650489951396e-01 3.2216059425628701e-01 8.5834227615653136e-01 -7.3378291604793677e-01 -3.7766037866690900e+00 3.7432015946001433e+00 -3.3048322651010200e+00 -3.8737027048576698e+00 8.7078555281428371e-01 1.9571511549771237e+00 
        </Neuron>
        <Neuron NSynapses="21">
          -4.4147061648388757e+00 5.0035912928754325e+00 -1.0395296189360716e+01 -2.1650157345787036e+00 2.5357203365149239e-01 1.5715748587721632e+00 -1.4936862771700360e+01 1.6266764771406886e-01 -3.6448707184383839e+00 -9.7335456523448158e+00 -4.5711475710622262e-01 -2.0200886308886896e+00 -2.1693539201237155e-01 -1.3942622659230608e+00 1.3705693424962730e+01 -1.2456571624708156e+01 6.4720902034509438e+00 -7.5607768736023591e+00 5.7528727007847780e-01 -1.0955762270194549e+00 -1.7775549133551019e-01 
        </Neuron>
        <Neuron NSynapses="21">
          -2.5551714083511188e+00 1.1245129223753965e+00 -8.5035573387600731e+00 3.7097761302004839e+00 -2.8123231079960402e+00 2.3432576193315630e-01 -7.8679188692093289e+00 -9.5193975456855096e-01 -8.4025563687479359e+00 -6.3505225283213527e+00 -2.5583685344696483e+00 -1.3429858153462026e+00 -4.5070735553024992e+00 -2.7801469239778726e-01 -1.3124579776638896e+01 1.8366615434264686e+00 4.8007460214799620e+00 -4.3249662635982791e+00 -4.4813324335853544e+00 1.7564458449351308e+00 1.2344393524528570e+00 
        </Neuron>
        <Neuron NSynapses="21">
          -5.6003661504097924e+00 1.2699218854504130e+01 -2.0414139315794191e+01 -2.1563361793210074e+00 2.0889271267562451e-01 -3.6917152202497666e-01 -2.8530601051005203e+01 -7.3886633808907046e-02 -3.0710019555268717e+00 -9.6825014100615796e+00 2.2284320649605558e+00 1.1078238840433987e+00 1.9673971890409827e+00 -1.4251185756197409e+00 2.4182198739845454e+01 -2.0771317311462642e+01 6.8133440285555125e+00 -9.3744256229981531e+00 -2.9815793415993745e+00 -5.2957223202266118e-02 5.2777972516230820e-01 
        </Neuron>
        <Neuron NSynapses="21">
          1.2632569889733376e+00 3.1987799240143975e+00 -7.6416652157564222e+00 -1.1178376597618044e-01 1.8217482292498099e-02 -1.3856756991144825e+00 -2.9835734051437872e+00 -1.3816681740931920e+00 -3.8098631029712342e+00 3.8065915467162925e-01 1.7783308207340902e+00 4.6430652366309633e-01 1.9764594001110286e-01 -2.5012227563596294e+00 -1.0154121018712557e+01 8.0711640798201003e+00 -2.2168023939259807e+00 1.9882742604003600e+00 5.7334029394197220e-03 -1.4729609249241180e+00 -2.2865665759673304e+00 
        </Neuron>
      </Layer>
      <Layer Index="1" NNeurons="22">
        <Neuron NSynapses="1">
          -1.8990969272245981e+00 
        </Neuron>
        <Neuron NSynapses="1">
          -1.5104876453944831e+00 
        </Neuron>
        <Neuron NSynapses="1">
          -1.5009555308049718e+00 
        </Neuron>
        <Neuron NSynapses="1">
          2.0332657055485304e+00 
        </Neuron>
        <Neuron NSynapses="1">
          -2.0477072679894556e-01 
        </Neuron>
        <Neuron NSynapses="1">
          -3.8211627593456243e-01 
        </Neuron>
        <Neuron NSynapses="1">
          -1.8168708510177123e+00 
        </Neuron>
        <Neuron NSynapses="1">
          1.8111024579336661e+00 
        </Neuron>
        <Neuron NSynapses="1">
          -1.0921593398139195e+00 
        </Neuron>
        <Neuron NSynapses="1">
          -1.3293272945922701e+00 
        </Neuron>
        <Neuron NSynapses="1">
          8.5230946833978832e-02 
        </Neuron>
        <Neuron NSynapses="1">
          2.3454673286909836e-01 
        </Neuron>
        <Neuron NSynapses="1">
          -2.0905387270568356e+00 
        </Neuron>
        <Neuron NSynapses="1">
          -1.4211548014533137e+00 
        </Neuron>
        <Neuron NSynapses="1">
          -1.7276701245932931e+00 
        </Neuron>
        <Neuron NSynapses="1">
          8.3992237598386610e-01 
        </Neuron>
        <Neuron NSynapses="1">
          1.6626530231580032e+00 
        </Neuron>
        <Neuron NSynapses="1">
          1.5830266707338289e-01 
        </Neuron>
        <Neuron NSynapses="1">
          -2.9704003944478524e-01 
        </Neuron>
        <Neuron NSynapses="1">
          -9.2409352574843784e-01 
        </Neuron>
        <Neuron NSynapses="1">
          9.1205302859763235e-02 
        </Neuron>
        <Neuron NSynapses="1">
          2.7253238669876314e+00 
        </Neuron>
      </Layer>
      <Layer Index="2" NNeurons="1">
        <Neuron NSynapses="0"/>
      </Layer>
    </Layout>
  </Weights>
</MethodSetup>
