<?xml version="1.0"?>
<MethodSetup Method="MLP::MLP">
  <GeneralInfo>
    <Info name="TMVA Release" value="4.2.1 [262657]"/>
    <Info name="ROOT Release" value="6.22/08 [398856]"/>
    <Info name="Creator" value="root"/>
    <Info name="Date" value="Thu Oct 14 16:07:33 2021"/>
    <Info name="Host" value="Linux root-ubuntu-2004-2 5.4.0-33-generic #37-Ubuntu SMP Thu May 21 12:53:59 UTC 2020 x86_64 x86_64 x86_64 GNU/Linux"/>
    <Info name="Dir" value="/work"/>
    <Info name="Training events" value="16986"/>
    <Info name="TrainingTime" value="1.61715560e+01"/>
    <Info name="AnalysisType" value="Classification"/>
  </GeneralInfo>
  <Options>
    <Option name="NCycles" modified="Yes">100</Option>
    <Option name="HiddenLayers" modified="Yes">N+5</Option>
    <Option name="NeuronType" modified="Yes">tanh</Option>
    <Option name="RandomSeed" modified="No">1</Option>
    <Option name="EstimatorType" modified="No">CE</Option>
    <Option name="NeuronInputType" modified="No">sum</Option>
    <Option name="V" modified="Yes">False</Option>
    <Option name="VerbosityLevel" modified="No">Default</Option>
    <Option name="VarTransform" modified="Yes">N</Option>
    <Option name="H" modified="Yes">False</Option>
    <Option name="CreateMVAPdfs" modified="No">False</Option>
    <Option name="IgnoreNegWeightsInTraining" modified="No">False</Option>
    <Option name="TrainingMethod" modified="No">BP</Option>
    <Option name="LearningRate" modified="No">2.000000e-02</Option>
    <Option name="DecayRate" modified="No">1.000000e-02</Option>
    <Option name="TestRate" modified="Yes">5</Option>
    <Option name="EpochMonitoring" modified="No">False</Option>
    <Option name="Sampling" modified="No">1.000000e+00</Option>
    <Option name="SamplingEpoch" modified="No">1.000000e+00</Option>
    <Option name="SamplingImportance" modified="No">1.000000e+00</Option>
    <Option name="SamplingTraining" modified="No">True</Option>
    <Option name="SamplingTesting" modified="No">False</Option>
    <Option name="ResetStep" modified="No">50</Option>
    <Option name="Tau" modified="No">3.000000e+00</Option>
    <Option name="BPMode" modified="No">sequential</Option>
    <Option name="BatchSize" modified="No">-1</Option>
    <Option name="ConvergenceImprove" modified="No">1.000000e-30</Option>
    <Option name="ConvergenceTests" modified="No">-1</Option>
    <Option name="UseRegulator" modified="Yes">False</Option>
    <Option name="UpdateLimit" modified="No">10000</Option>
    <Option name="CalculateErrors" modified="No">False</Option>
    <Option name="WeightRange" modified="No">1.000000e+00</Option>
  </Options>
  <Variables NVar="18">
    <Variable VarIndex="0" Expression="Dimuon_CL" Label="Dimuon_CL" Title="Dimuon_CL" Unit="" Internal="Dimuon_CL" Type="F" Min="1.01317663e-03" Max="9.99976218e-01"/>
    <Variable VarIndex="1" Expression="Dimuon_LS" Label="Dimuon_LS" Title="Dimuon_LS" Unit="" Internal="Dimuon_LS" Type="F" Min="1.00234672e-02" Max="2.87732330e+02"/>
    <Variable VarIndex="2" Expression="Dimuon_CosAlpha" Label="Dimuon_CosAlpha" Title="Dimuon_CosAlpha" Unit="" Internal="Dimuon_CosAlpha" Type="F" Min="-9.99999881e-01" Max="1.00000000e+00"/>
    <Variable VarIndex="3" Expression="B_Eta" Label="B_Eta" Title="B_Eta" Unit="" Internal="B_Eta" Type="F" Min="-2.41874504e+00" Max="2.37483788e+00"/>
    <Variable VarIndex="4" Expression="Bz_LS" Label="Bz_LS" Title="Bz_LS" Unit="" Internal="Bz_LS" Type="F" Min="1.06340609e-02" Max="3.07503174e+02"/>
    <Variable VarIndex="5" Expression="Bz_CL" Label="Bz_CL" Title="Bz_CL" Unit="" Internal="Bz_CL" Type="F" Min="1.00600766e-03" Max="9.99998510e-01"/>
    <Variable VarIndex="6" Expression="Bz_CosAlpha" Label="Bz_CosAlpha" Title="Bz_CosAlpha" Unit="" Internal="Bz_CosAlpha" Type="F" Min="-9.99995291e-01" Max="1.00000000e+00"/>
    <Variable VarIndex="7" Expression="Kstar_Mass" Label="Kstar_Mass" Title="Kstar_Mass" Unit="" Internal="Kstar_Mass" Type="F" Min="6.53166413e-01" Max="4.56265450e+00"/>
    <Variable VarIndex="8" Expression="track1_pT" Label="track1_pT" Title="track1_pT" Unit="" Internal="track1_pT" Type="F" Min="8.00292969e-01" Max="2.68750000e+01"/>
    <Variable VarIndex="9" Expression="track1_eta" Label="track1_eta" Title="track1_eta" Unit="" Internal="track1_eta" Type="F" Min="-2.39967036e+00" Max="2.39985347e+00"/>
    <Variable VarIndex="10" Expression="track1_d0" Label="track1_d0" Title="track1_d0" Unit="" Internal="track1_d0" Type="F" Min="1.67953131e-05" Max="1.37721756e+02"/>
    <Variable VarIndex="11" Expression="track2_pT" Label="track2_pT" Title="track2_pT" Unit="" Internal="track2_pT" Type="F" Min="8.06640625e-01" Max="7.01406250e+01"/>
    <Variable VarIndex="12" Expression="track2_eta" Label="track2_eta" Title="track2_eta" Unit="" Internal="track2_eta" Type="F" Min="-2.39948726e+00" Max="2.39948726e+00"/>
    <Variable VarIndex="13" Expression="track2_d0" Label="track2_d0" Title="track2_d0" Unit="" Internal="track2_d0" Type="F" Min="5.10651771e-05" Max="1.36932953e+02"/>
    <Variable VarIndex="14" Expression="Muon1_pT" Label="Muon1_pT" Title="Muon1_pT" Unit="" Internal="Muon1_pT" Type="F" Min="7.64846385e-01" Max="9.28248444e+01"/>
    <Variable VarIndex="15" Expression="Muon1_eta" Label="Muon1_eta" Title="Muon1_eta" Unit="" Internal="Muon1_eta" Type="F" Min="-2.39949632e+00" Max="2.39877582e+00"/>
    <Variable VarIndex="16" Expression="Muon2_pT" Label="Muon2_pT" Title="Muon2_pT" Unit="" Internal="Muon2_pT" Type="F" Min="6.64288223e-01" Max="4.83530350e+01"/>
    <Variable VarIndex="17" Expression="Muon2_eta" Label="Muon2_eta" Title="Muon2_eta" Unit="" Internal="Muon2_eta" Type="F" Min="-2.39892054e+00" Max="2.39915490e+00"/>
  </Variables>
  <Spectators NSpec="0"/>
  <Classes NClass="2">
    <Class Name="Signal" Index="0"/>
    <Class Name="Background" Index="1"/>
  </Classes>
  <Transformations NTransformations="1">
    <Transform Name="Normalize">
      <Selection>
        <Input NInputs="18">
          <Input Type="Variable" Label="Dimuon_CL" Expression="Dimuon_CL"/>
          <Input Type="Variable" Label="Dimuon_LS" Expression="Dimuon_LS"/>
          <Input Type="Variable" Label="Dimuon_CosAlpha" Expression="Dimuon_CosAlpha"/>
          <Input Type="Variable" Label="B_Eta" Expression="B_Eta"/>
          <Input Type="Variable" Label="Bz_LS" Expression="Bz_LS"/>
          <Input Type="Variable" Label="Bz_CL" Expression="Bz_CL"/>
          <Input Type="Variable" Label="Bz_CosAlpha" Expression="Bz_CosAlpha"/>
          <Input Type="Variable" Label="Kstar_Mass" Expression="Kstar_Mass"/>
          <Input Type="Variable" Label="track1_pT" Expression="track1_pT"/>
          <Input Type="Variable" Label="track1_eta" Expression="track1_eta"/>
          <Input Type="Variable" Label="track1_d0" Expression="track1_d0"/>
          <Input Type="Variable" Label="track2_pT" Expression="track2_pT"/>
          <Input Type="Variable" Label="track2_eta" Expression="track2_eta"/>
          <Input Type="Variable" Label="track2_d0" Expression="track2_d0"/>
          <Input Type="Variable" Label="Muon1_pT" Expression="Muon1_pT"/>
          <Input Type="Variable" Label="Muon1_eta" Expression="Muon1_eta"/>
          <Input Type="Variable" Label="Muon2_pT" Expression="Muon2_pT"/>
          <Input Type="Variable" Label="Muon2_eta" Expression="Muon2_eta"/>
        </Input>
        <Output NOutputs="18">
          <Output Type="Variable" Label="Dimuon_CL" Expression="Dimuon_CL"/>
          <Output Type="Variable" Label="Dimuon_LS" Expression="Dimuon_LS"/>
          <Output Type="Variable" Label="Dimuon_CosAlpha" Expression="Dimuon_CosAlpha"/>
          <Output Type="Variable" Label="B_Eta" Expression="B_Eta"/>
          <Output Type="Variable" Label="Bz_LS" Expression="Bz_LS"/>
          <Output Type="Variable" Label="Bz_CL" Expression="Bz_CL"/>
          <Output Type="Variable" Label="Bz_CosAlpha" Expression="Bz_CosAlpha"/>
          <Output Type="Variable" Label="Kstar_Mass" Expression="Kstar_Mass"/>
          <Output Type="Variable" Label="track1_pT" Expression="track1_pT"/>
          <Output Type="Variable" Label="track1_eta" Expression="track1_eta"/>
          <Output Type="Variable" Label="track1_d0" Expression="track1_d0"/>
          <Output Type="Variable" Label="track2_pT" Expression="track2_pT"/>
          <Output Type="Variable" Label="track2_eta" Expression="track2_eta"/>
          <Output Type="Variable" Label="track2_d0" Expression="track2_d0"/>
          <Output Type="Variable" Label="Muon1_pT" Expression="Muon1_pT"/>
          <Output Type="Variable" Label="Muon1_eta" Expression="Muon1_eta"/>
          <Output Type="Variable" Label="Muon2_pT" Expression="Muon2_pT"/>
          <Output Type="Variable" Label="Muon2_eta" Expression="Muon2_eta"/>
        </Output>
      </Selection>
      <Class ClassIndex="0">
        <Ranges>
          <Range Index="0" Min="1.0131766321137547e-03" Max="9.9997621774673462e-01"/>
          <Range Index="1" Min="1.0023467242717743e-02" Max="2.8773233032226562e+02"/>
          <Range Index="2" Min="-9.9999988079071045e-01" Max="1.0000000000000000e+00"/>
          <Range Index="3" Min="-2.4187450408935547e+00" Max="2.3748378753662109e+00"/>
          <Range Index="4" Min="1.0634060949087143e-02" Max="3.0750317382812500e+02"/>
          <Range Index="5" Min="1.0060076601803303e-03" Max="9.9999850988388062e-01"/>
          <Range Index="6" Min="-9.9999529123306274e-01" Max="1.0000000000000000e+00"/>
          <Range Index="7" Min="6.5316641330718994e-01" Max="4.5626544952392578e+00"/>
          <Range Index="8" Min="8.0029296875000000e-01" Max="2.6875000000000000e+01"/>
          <Range Index="9" Min="-2.3996703624725342e+00" Max="2.3998534679412842e+00"/>
          <Range Index="10" Min="1.6795313058537431e-05" Max="1.3772175598144531e+02"/>
          <Range Index="11" Min="8.0664062500000000e-01" Max="7.0140625000000000e+01"/>
          <Range Index="12" Min="-2.3994872570037842e+00" Max="2.3994872570037842e+00"/>
          <Range Index="13" Min="5.1065177103737369e-05" Max="1.3693295288085938e+02"/>
          <Range Index="14" Min="7.6484638452529907e-01" Max="9.2824844360351562e+01"/>
          <Range Index="15" Min="-2.3994712829589844e+00" Max="2.3987758159637451e+00"/>
          <Range Index="16" Min="6.6428822278976440e-01" Max="4.8353034973144531e+01"/>
          <Range Index="17" Min="-2.3989205360412598e+00" Max="2.3991549015045166e+00"/>
        </Ranges>
      </Class>
      <Class ClassIndex="1">
        <Ranges>
          <Range Index="0" Min="1.0852534323930740e-03" Max="9.9282950162887573e-01"/>
          <Range Index="1" Min="6.0967274010181427e-02" Max="1.9067994689941406e+02"/>
          <Range Index="2" Min="-9.9999696016311646e-01" Max="9.9999994039535522e-01"/>
          <Range Index="3" Min="-1.1814342737197876e+00" Max="1.9803456068038940e+00"/>
          <Range Index="4" Min="1.2065253406763077e-01" Max="1.9070428466796875e+02"/>
          <Range Index="5" Min="1.0092066368088126e-03" Max="9.9991023540496826e-01"/>
          <Range Index="6" Min="-9.9999392032623291e-01" Max="1.0000000000000000e+00"/>
          <Range Index="7" Min="7.3099267482757568e-01" Max="4.4390373229980469e+00"/>
          <Range Index="8" Min="8.0029296875000000e-01" Max="4.4335937500000000e+00"/>
          <Range Index="9" Min="-2.3954589366912842e+00" Max="2.3908810615539551e+00"/>
          <Range Index="10" Min="1.6450935509055853e-03" Max="2.6438682556152344e+01"/>
          <Range Index="11" Min="8.0908203125000000e-01" Max="1.8098571777343750e+01"/>
          <Range Index="12" Min="-2.3914303779602051e+00" Max="2.3881344795227051e+00"/>
          <Range Index="13" Min="2.6631215587258339e-03" Max="3.2195594787597656e+01"/>
          <Range Index="14" Min="7.9426497220993042e-01" Max="3.2603935241699219e+01"/>
          <Range Index="15" Min="-2.3994963169097900e+00" Max="2.3940892219543457e+00"/>
          <Range Index="16" Min="6.6484862565994263e-01" Max="2.1057973861694336e+01"/>
          <Range Index="17" Min="-2.3817837238311768e+00" Max="2.3832483291625977e+00"/>
        </Ranges>
      </Class>
      <Class ClassIndex="2">
        <Ranges>
          <Range Index="0" Min="1.0131766321137547e-03" Max="9.9997621774673462e-01"/>
          <Range Index="1" Min="1.0023467242717743e-02" Max="2.8773233032226562e+02"/>
          <Range Index="2" Min="-9.9999988079071045e-01" Max="1.0000000000000000e+00"/>
          <Range Index="3" Min="-2.4187450408935547e+00" Max="2.3748378753662109e+00"/>
          <Range Index="4" Min="1.0634060949087143e-02" Max="3.0750317382812500e+02"/>
          <Range Index="5" Min="1.0060076601803303e-03" Max="9.9999850988388062e-01"/>
          <Range Index="6" Min="-9.9999529123306274e-01" Max="1.0000000000000000e+00"/>
          <Range Index="7" Min="6.5316641330718994e-01" Max="4.5626544952392578e+00"/>
          <Range Index="8" Min="8.0029296875000000e-01" Max="2.6875000000000000e+01"/>
          <Range Index="9" Min="-2.3996703624725342e+00" Max="2.3998534679412842e+00"/>
          <Range Index="10" Min="1.6795313058537431e-05" Max="1.3772175598144531e+02"/>
          <Range Index="11" Min="8.0664062500000000e-01" Max="7.0140625000000000e+01"/>
          <Range Index="12" Min="-2.3994872570037842e+00" Max="2.3994872570037842e+00"/>
          <Range Index="13" Min="5.1065177103737369e-05" Max="1.3693295288085938e+02"/>
          <Range Index="14" Min="7.6484638452529907e-01" Max="9.2824844360351562e+01"/>
          <Range Index="15" Min="-2.3994963169097900e+00" Max="2.3987758159637451e+00"/>
          <Range Index="16" Min="6.6428822278976440e-01" Max="4.8353034973144531e+01"/>
          <Range Index="17" Min="-2.3989205360412598e+00" Max="2.3991549015045166e+00"/>
        </Ranges>
      </Class>
    </Transform>
  </Transformations>
  <MVAPdfs/>
  <Weights>
    <Layout NLayers="3">
      <Layer Index="0" NNeurons="19">
        <Neuron NSynapses="23">
          -1.0198706352116675e+00 1.9365061396733967e+00 1.5607458044305174e+00 2.3111774570186676e+00 -2.8336829338136051e+00 -1.5639260507176544e+00 -2.9558631513234546e-01 2.6846233312890084e+00 -1.2762721565616613e+00 -1.4336032171893738e+00 -1.6514705696964589e+00 -7.0513183350420539e-01 -1.7220889303153082e+00 -2.2509672169602926e-01 -6.4541497971003869e-01 3.7522199616300700e-01 -8.7634380874795814e-01 -1.2546373353346921e-02 5.7903147665105015e-01 -5.7481057676833335e-02 -3.0060537326219083e-01 2.7383820221628363e-01 7.3051332658936408e-01 
        </Neuron>
        <Neuron NSynapses="23">
          5.9780035247180296e-01 -1.3967161107028330e+00 3.1951280681445135e-02 1.6681126380441389e+00 -1.0620301088869890e+00 -1.7391553582074974e+00 2.2691933448697479e-01 1.4627272381247538e+00 1.2911868806808819e+00 -3.2469983856836709e-01 -1.4647769880596101e-01 -2.9916624208122772e-01 3.4610594093055896e-01 -1.7231574082419274e+00 1.7644035044628525e+00 -1.5411009264723687e+00 6.7151358037927700e-01 5.3842373501473417e-01 9.7608477717429742e-01 1.1825930380614615e+00 1.5015822557931597e+00 -5.3013219162972336e-01 -1.4296561447370171e+00 
        </Neuron>
        <Neuron NSynapses="23">
          6.2741369983141448e-01 -4.4645596748170185e-01 2.0062714918807454e+00 8.2424716155032529e-01 9.6416099338297567e-01 1.3077062989461619e+00 -3.2660365542570937e+00 4.6611972598595447e-01 -1.3054348915308274e+00 -1.4394677344056528e-01 -2.8674644994123657e+00 -9.4000245423022544e-01 -1.6381229379879220e-01 3.8925523264764789e-01 -2.3197978565491075e+00 4.4302662021497841e-01 1.6162298865986494e-01 1.3753504949453207e-01 1.3124229604404205e+00 9.8065263250461249e-02 -3.6046064037903752e-01 -5.7606550647333765e-01 2.1115018815180847e-01 
        </Neuron>
        <Neuron NSynapses="23">
          1.0243542150958305e+00 -8.5907659996827457e-01 -1.0207307940684447e+00 9.5763477123364382e-01 1.1680157420414226e+00 1.6906501588244192e+00 3.6831928902155170e-02 -1.1776395305834575e+00 -1.5836172619673758e+00 1.5530801574480286e+00 -1.4411788576949525e-01 3.2657863131835394e+00 2.1104495418520339e+00 6.7715186217292322e-01 -8.6370556622444583e-01 -1.5402473742072340e+00 -3.1707863381656493e-01 5.8166207074482230e+00 -2.7545518953014147e-03 -3.2552046557683822e+00 -1.4140750874060033e+00 2.0225090885553454e-01 6.8965698276504617e-01 
        </Neuron>
        <Neuron NSynapses="23">
          1.9510444200587136e+00 -2.0034782467660124e+00 -5.2299573991913384e-01 1.6793789704512174e+00 -8.9004815315035013e-01 -1.4138938004499975e+00 -9.7242691523067193e-01 6.1808506206826885e-01 -2.1806610029746509e+00 -1.6498735113761669e+00 7.2129606118124512e-01 1.2226252613763422e+00 -5.7599094422096797e-01 1.4447102388523139e+00 -9.3471864896543067e-01 -1.3250004560030622e+00 -3.5968869307872714e-01 -3.7476500410508362e-01 -1.8313425940053114e+00 -3.3707335580966380e-01 5.4787851884375705e-01 1.2419153465966386e+00 -5.5180615997525928e-01 
        </Neuron>
        <Neuron NSynapses="23">
          1.1011164984103814e+00 3.8864617028881404e-01 7.3325021027728948e-02 6.0121971455032008e-02 -5.3069657993640107e-01 -1.6937658738713566e+00 2.7208418860651912e-01 1.7241319093967225e-01 1.3336018826466918e+00 5.3886746788276418e-01 -4.2963600554728520e-01 -3.4149926533489150e-01 5.9895268923089773e-01 -1.8518014603775070e+00 -7.2189546737409890e-02 8.1205054810424637e-01 -1.7068905638925393e+00 1.3070216248119848e-01 -2.0023385551167139e+00 2.5536800065222753e-01 9.8607323287572268e-01 1.9776489418997782e+00 -1.7557005380340318e-01 
        </Neuron>
        <Neuron NSynapses="23">
          -2.0648916021849500e-01 9.9414290489054558e-01 2.1424661867066721e+00 1.9197970927764019e-01 -2.0431965043449649e+00 -6.3474439246819947e-01 -5.0185840249485683e+00 2.6625791387773812e+00 1.2083915186791347e+00 2.7074480124441930e-01 -1.4164437343771530e+00 7.6805893505847223e-01 -2.2454989637498096e-01 -7.6066756903611965e-01 1.2847076956785202e+00 1.6882049782853750e-01 -6.0714764026498913e-01 -1.1763552276061998e-01 1.2490302159387106e+00 -6.0560024889580850e-02 4.1600072173639507e-01 -8.4172590685230253e-01 5.3261812406408182e-01 
        </Neuron>
        <Neuron NSynapses="23">
          1.5855776963560193e+00 6.6943804075232383e-01 3.9329188119341257e-01 1.2938129415129582e+00 -6.5443232410505048e-01 -6.0044873916097374e-01 9.7289466108523981e-01 -1.4054951744000403e+00 -8.6762246180932145e-01 4.0336678176624235e-01 8.1006747296267034e-01 6.9253898579965267e-01 1.6003853448497907e+00 9.1335351838130663e-01 -1.6328660162288868e+00 -4.4216420146338348e-01 -8.4538056977545062e-01 1.7583765633688636e-01 -1.2764016855597689e+00 -5.6592983648325701e-01 1.5404996829107347e+00 1.6561538634161859e+00 -1.4452061075169407e+00 
        </Neuron>
        <Neuron NSynapses="23">
          -5.3700602500464700e-01 -5.1517738212406572e-01 4.6644563283221968e-01 1.3487507901165465e+00 -6.0882503288031520e-01 -3.6211006346545183e-01 -1.7426203125880821e+00 5.9021004271849842e-01 1.1013388489661255e+00 1.2095910643008851e+00 1.6493260623562939e-01 -1.6497297512524942e-01 -1.9931232634712210e+00 8.7832928218615980e-01 3.8889315806407587e-01 -7.2680434765536683e-01 -9.4332385000353081e-01 1.4790615972418770e+00 -1.8674829540047788e-01 -1.5021624778717684e+00 1.6896958636092878e+00 1.0862560727114665e+00 -2.2975941495648330e-01 
        </Neuron>
        <Neuron NSynapses="23">
          1.6627558455656664e+00 1.5663656583640677e+00 1.5223653150532592e+00 1.1667909521724236e+00 -3.8084225815525780e-01 -1.7390640666819883e+00 -4.2807404202850291e-01 2.3142560636724894e+00 1.4754472379474268e+00 5.5151145819208391e-01 5.5288130971910809e-01 2.4308450226023255e+00 -1.7247200222226968e+00 -2.0691995802860470e+00 5.5393907465194368e-02 -1.1886316634474314e+00 8.9884646216031594e-01 2.6682238692481969e-01 -1.8580046566285378e+00 2.5229984220758112e-01 1.5681943352447039e-01 -1.3912460602539904e+00 9.4362834103416282e-01 
        </Neuron>
        <Neuron NSynapses="23">
          7.4361414603376752e-01 -2.6580414545391812e-01 1.3101656750181103e+00 -1.3392174284019116e+00 1.6666815300841740e+00 -1.6472346293595761e+00 6.3011140178952985e-02 -1.6382019431691186e-01 -1.7267519641766595e+00 -1.2881102306455992e+00 -1.8089198814035328e+00 -1.0340948269338016e-01 -1.6910895732676556e+00 -1.8696348867056372e+00 -1.9694046030867887e+00 2.6455853416702863e-01 -1.4854913327437445e+00 -8.6384670583219114e-01 1.2714591381646267e+00 -1.0215109652707073e+00 4.4369002963035820e-01 -6.0014157901155296e-01 2.2695614105771375e-01 
        </Neuron>
        <Neuron NSynapses="23">
          2.0855955929565204e+00 1.4646483221364666e+00 -6.7861818328080259e-01 -1.2654815191890953e+00 -1.3292317266324183e+00 -7.3395168315570658e-01 -2.2946955610901321e+00 9.3532342180395422e-01 -2.4257640291338303e-01 2.0410418022639409e+00 -3.6270164638381280e-01 5.3258940968875035e-01 -2.3021634542972338e-01 -2.2337508808243061e+00 1.2392309947785580e+00 1.2301325281158431e+00 -1.2079414666568642e+00 -1.2063757388456933e+00 7.5311695782843269e-01 6.8344112923576661e-01 7.2857461956666858e-01 -2.7663546097385139e-01 -5.0965618781726466e-02 
        </Neuron>
        <Neuron NSynapses="23">
          2.1789202161210151e+00 9.1211702646844717e-01 9.1897659940757026e-01 1.8917861751495657e-01 1.5448635695397741e+00 -6.0908460723220281e-01 1.1686728514038820e-01 -1.4344750301875104e+00 -1.4336507506691873e+00 -1.4734893104106235e+00 -9.7983169719814611e-01 2.0968376208422899e+00 -1.1335266914310163e+00 1.6217030958613881e+00 -1.0080632601559152e+00 4.5108169261125936e-01 -1.2738348383792830e+00 2.6931324579771654e-01 5.8135934551980539e-01 4.9287171748462699e-01 5.2893804647359699e-01 4.1384002766732048e-01 -8.0272407538388268e-01 
        </Neuron>
        <Neuron NSynapses="23">
          -1.3936821199439036e+00 -1.8033045808332429e+00 -5.2123765498393426e-01 1.9111862609306807e+00 -5.7824843135621218e-01 4.4803732680386382e-01 -1.6705633099229920e+00 -9.7906451149526230e-01 -2.1209051392894067e+00 -9.7111965640525943e-01 -1.3460499604794132e+00 1.1939739689285642e+00 -1.2525583550156265e+00 -1.6431149725289629e+00 1.8249180596717136e+00 4.8637722350533086e-01 -1.0688017688102591e+00 2.0015464683628594e+00 -1.9567954507602034e+00 1.0964675195524458e+00 1.3225343226281918e+00 -4.5361972366402598e-01 -2.6814471658254428e-03 
        </Neuron>
        <Neuron NSynapses="23">
          -4.1605173330048539e-01 -1.2416239239131583e+00 5.7132114270206025e-01 2.0991474293427523e+00 1.0857681086267652e+00 1.6168030274675729e+00 3.9832273816731001e-01 2.2532940225482196e+00 -2.3458022186951659e+00 9.0886391034590885e-01 -1.7507525456357491e+00 -1.8222333602234837e+00 2.2123017288589056e-01 1.0565402225740870e+00 4.9237852386780123e-01 2.3921357819016420e-01 -7.4560558842507410e-02 -3.4542254777638681e-01 -4.0227315685083542e-01 -6.7969456132760886e-01 1.9180347232847725e+00 -2.2374737712882160e+00 -7.7029707631210986e-01 
        </Neuron>
        <Neuron NSynapses="23">
          -2.7217093779995896e+00 -3.8422840954309734e-01 1.2469249677664623e-01 1.1278350306201141e+00 -1.5469356966109931e+00 8.4250721023773345e-01 9.7058417997547153e-01 3.2581007850675325e-01 1.7878966908102875e-01 -1.8481069199539815e+00 -1.8383396046507130e+00 -1.5512002385878032e+00 1.4548516464502088e+00 6.1291145220009363e-02 -1.6752395890357332e+00 3.2061909626824353e-01 -9.7415184998992377e-01 -8.5471570509395578e-01 -2.9081677656719394e+00 3.9260675622731456e-01 -1.0556730498698745e+00 -8.7631439484130014e-01 -8.0015764307407022e-01 
        </Neuron>
        <Neuron NSynapses="23">
          -2.2478122926680029e+00 -1.5284775310462957e+00 9.8668461005539554e-01 -1.1084019145547606e+00 -1.3247044987333609e+00 1.7523222290661100e+00 -3.7159726355783680e+00 1.3326123166374959e+00 -3.4727365356711881e-01 1.6837100615402201e+00 1.1878938368639735e+00 1.0327564303380568e+00 -8.0653036814912060e-01 -8.3290773205127377e-01 -1.9388615048671181e+00 2.6317023865648221e+00 4.9866644379713382e-01 3.6239667465783876e-01 8.7318574730949439e-01 2.8885825106918293e+00 1.9664126083123634e+00 -1.6966631428376315e+00 3.3694952034419532e+00 
        </Neuron>
        <Neuron NSynapses="23">
          -1.9960654569348046e+00 -1.8566915587099033e+00 -1.3067681763964303e-01 -8.5685489844019613e-01 2.3159152718905573e-01 2.4721791431261361e-01 -7.8313301966941140e-01 1.6783085227551819e+00 -5.4296906870533797e-02 1.3014142212755122e+00 7.5917777936255859e-01 9.6950275314524770e-01 -1.1395689033680574e+00 2.2120751212970347e+00 -2.2833248039855722e+00 1.0159357114475993e+00 2.1926850148325041e+00 5.1422203667707589e-01 -1.7106507767931445e+00 -2.6396033147598830e-01 -1.0438276483927464e+00 7.3216156120258358e-01 -3.6159523927258417e+00 
        </Neuron>
        <Neuron NSynapses="23">
          -6.4814475762058044e-01 -3.4563770255911441e-01 1.3879398831278720e+00 8.0260656551707110e-01 1.4946113388393327e+00 -7.6266777643737860e-01 -6.6795081898470399e-01 2.0915021038023132e-01 2.4197622445485441e+00 -1.8793594349669223e+00 -1.4957989416896054e+00 -9.5275356880634821e-01 -2.2020790394434342e+00 -1.1077084329967037e+00 -1.5250153948598111e+00 1.2185001807027986e+00 8.1205258097771937e-01 -2.4432393792879017e+00 -1.9111006599078721e+00 8.2854321988983215e-01 1.3074291985615403e+00 2.0015361494823010e+00 1.5429801895919906e+00 
        </Neuron>
      </Layer>
      <Layer Index="1" NNeurons="24">
        <Neuron NSynapses="1">
          -1.1271668681301883e+00 
        </Neuron>
        <Neuron NSynapses="1">
          -1.3243020102246241e+00 
        </Neuron>
        <Neuron NSynapses="1">
          -5.2625022403446575e-01 
        </Neuron>
        <Neuron NSynapses="1">
          -9.7331721796744597e-01 
        </Neuron>
        <Neuron NSynapses="1">
          -1.6623737385954391e+00 
        </Neuron>
        <Neuron NSynapses="1">
          -3.0747498904090736e-01 
        </Neuron>
        <Neuron NSynapses="1">
          -1.9377122632608765e+00 
        </Neuron>
        <Neuron NSynapses="1">
          -1.4886331940491104e+00 
        </Neuron>
        <Neuron NSynapses="1">
          1.9524229400315884e+00 
        </Neuron>
        <Neuron NSynapses="1">
          1.0092519080856963e+00 
        </Neuron>
        <Neuron NSynapses="1">
          -5.3665429286164157e-01 
        </Neuron>
        <Neuron NSynapses="1">
          7.9854574239309628e-01 
        </Neuron>
        <Neuron NSynapses="1">
          -1.3736007272027733e+00 
        </Neuron>
        <Neuron NSynapses="1">
          4.2728785438983474e-01 
        </Neuron>
        <Neuron NSynapses="1">
          -2.7583941746266666e-01 
        </Neuron>
        <Neuron NSynapses="1">
          7.6685745974532005e-01 
        </Neuron>
        <Neuron NSynapses="1">
          2.1060024901566314e+00 
        </Neuron>
        <Neuron NSynapses="1">
          2.2538493089571832e+00 
        </Neuron>
        <Neuron NSynapses="1">
          -7.6578546171186190e-01 
        </Neuron>
        <Neuron NSynapses="1">
          1.2837076212236469e+00 
        </Neuron>
        <Neuron NSynapses="1">
          -2.5440193253610750e+00 
        </Neuron>
        <Neuron NSynapses="1">
          1.4533223920325917e+00 
        </Neuron>
        <Neuron NSynapses="1">
          2.2098034484045681e+00 
        </Neuron>
        <Neuron NSynapses="1">
          7.6790947715955626e-01 
        </Neuron>
      </Layer>
      <Layer Index="2" NNeurons="1">
        <Neuron NSynapses="0"/>
      </Layer>
    </Layout>
  </Weights>
</MethodSetup>
